booster[0]:
0:[f1557<-12438962] yes=1,no=2,missing=1
	1:[f1484<-11980206] yes=3,no=4,missing=3
		3:[f1554<-13127095] yes=7,no=8,missing=7
			7:[f1542<-12766644] yes=15,no=16,missing=15
				15:[f1527<-13454778] yes=31,no=32,missing=31
					31:[f1367<-11488427] yes=61,no=62,missing=61
						61:[f317<-13389242] yes=105,no=106,missing=105
							105:[f1225<-13290936] yes=173,no=174,missing=173
								173:[f10<-13389242] yes=239,no=240,missing=239
									239:leaf=1.31601572
									240:leaf=0.375
								174:[f56<-13159863] yes=241,no=242,missing=241
									241:leaf=0.075000003
									242:leaf=0.675000012
							106:leaf=0.5625
						62:[f1191<-13290936] yes=107,no=108,missing=107
							107:leaf=0.100000009
							108:leaf=0.675000012
					32:[f1521<-13258168] yes=63,no=64,missing=63
						63:[f1517<-11947310] yes=109,no=110,missing=109
							109:[f1468<-12996022] yes=175,no=176,missing=175
								175:[f1487<-13389242] yes=243,no=244,missing=243
									243:[f1437<-12406194] yes=309,no=310,missing=309
										309:leaf=0.872727334
										310:leaf=0.100000009
									244:[f1536<-13028790] yes=311,no=312,missing=311
										311:leaf=0.125
										312:leaf=0.487500012
								176:leaf=1.15714288
							110:leaf=0.180000007
						64:[f87<-12832181] yes=111,no=112,missing=111
							111:leaf=1.22068965
							112:leaf=0.5
				16:[f1521<-9586722] yes=33,no=34,missing=33
					33:[f1570<-11521196] yes=65,no=66,missing=65
						65:[f1391<-12275120] yes=113,no=114,missing=113
							113:[f1219<-13290936] yes=177,no=178,missing=177
								177:[f1468<-11488427] yes=245,no=246,missing=245
									245:[f16<-13094327] yes=313,no=314,missing=313
										313:leaf=1.20833337
										314:leaf=0.5
									246:[f1588<-11291818] yes=315,no=316,missing=315
										315:leaf=0.806250036
										316:leaf=0.075000003
								178:leaf=0.075000003
							114:[f121<-13454778] yes=179,no=180,missing=179
								179:leaf=0.075000003
								180:leaf=0.400000036
						66:[f1530<-13225400] yes=115,no=116,missing=115
							115:[f1428<-10898344] yes=181,no=182,missing=181
								181:leaf=0.112500004
								182:leaf=0.300000012
							116:leaf=0.814285696
					34:leaf=0.1875
			8:[f1564<-11816110] yes=17,no=18,missing=17
				17:[f1582<-12864948] yes=35,no=36,missing=35
					35:[f1511<-10537638] yes=67,no=68,missing=67
						67:[f1397<-12733876] yes=117,no=118,missing=117
							117:[f677<-13094327] yes=183,no=184,missing=183
								183:leaf=1.23409104
								184:leaf=0.625
							118:leaf=0.075000003
						68:[f28<-13454778] yes=119,no=120,missing=119
							119:leaf=0.075000003
							120:leaf=0.5625
					36:[f1517<-9062049] yes=69,no=70,missing=69
						69:[f1484<-12340657] yes=121,no=122,missing=121
							121:[f1588<-13356473] yes=185,no=186,missing=185
								185:[f173<-12766644] yes=247,no=248,missing=247
									247:leaf=0.100000009
									248:leaf=0.5625
								186:[f1<-12897717] yes=249,no=250,missing=249
									249:[f1576<-12733876] yes=317,no=318,missing=317
										317:leaf=0.566666663
										318:leaf=0.978947401
									250:[f1<-9913897] yes=319,no=320,missing=319
										319:leaf=0.075000003
										320:leaf=0.375
							122:leaf=0.075000003
						70:[f25<-13323704] yes=123,no=124,missing=123
							123:leaf=0.300000012
							124:leaf=0.075000003
				18:[f1564<-11390122] yes=37,no=38,missing=37
					37:[f1434<-12996022] yes=71,no=72,missing=71
						71:leaf=0.125
						72:[f96<-13094327] yes=125,no=126,missing=125
							125:leaf=0.471428573
							126:leaf=0.075000003
					38:[f1493<-13454778] yes=73,no=74,missing=73
						73:[f1514<-13094327] yes=127,no=128,missing=127
							127:leaf=1.15714288
							128:leaf=0.557142854
						74:[f1548<-12111151] yes=129,no=130,missing=129
							129:[f1428<-12930486] yes=187,no=188,missing=187
								187:leaf=0.125
								188:leaf=0.300000012
							130:leaf=0.612500072
		4:[f1564<-12406194] yes=9,no=10,missing=9
			9:[f1542<-13159864] yes=19,no=20,missing=19
				19:[f1524<-12012974] yes=39,no=40,missing=39
					39:[f1502<-11553964] yes=75,no=76,missing=75
						75:[f4<-13389242] yes=131,no=132,missing=131
							131:leaf=1.22000003
							132:leaf=0.5
						76:leaf=0.574999988
					40:[f1388<-13454778] yes=77,no=78,missing=77
						77:leaf=0.100000009
						78:leaf=0.637500048
				20:[f1477<-13389242] yes=41,no=42,missing=41
					41:[f1594<-12897717] yes=79,no=80,missing=79
						79:leaf=0.125
						80:[f161<-11717550] yes=133,no=134,missing=133
							133:leaf=0.514285743
							134:leaf=0.075000003
					42:[f1293<-11816237] yes=81,no=82,missing=81
						81:[f967<-11553964] yes=135,no=136,missing=135
							135:[f1591<-13192632] yes=189,no=190,missing=189
								189:[f1444<-10144164] yes=251,no=252,missing=251
									251:leaf=0.487500012
									252:leaf=0.075000003
								190:leaf=0.840000033
							136:leaf=0.337500006
						82:leaf=0.100000009
			10:[f96<-12668340] yes=21,no=22,missing=21
				21:[f1499<-9324450] yes=43,no=44,missing=43
					43:[f1361<-4632741] yes=83,no=84,missing=83
						83:[f284<-13454778] yes=137,no=138,missing=137
							137:[f1422<-13389242] yes=191,no=192,missing=191
								191:[f1597<-8734112] yes=253,no=254,missing=253
									253:[f1428<-13356473] yes=321,no=322,missing=321
										321:leaf=0.13636364
										322:leaf=0.337500006
									254:leaf=0.900000036
								192:[f1527<-10209828] yes=255,no=256,missing=255
									255:[f130<-12471602] yes=323,no=324,missing=323
										323:leaf=0.915000021
										324:leaf=0.225000009
									256:[f1539<-10865576] yes=325,no=326,missing=325
										325:leaf=0.112500004
										326:leaf=0.43750003
							138:[f367<-6864159.5] yes=193,no=194,missing=193
								193:[f1524<-13094327] yes=257,no=258,missing=257
									257:[f1<-13094327] yes=327,no=328,missing=327
										327:leaf=0.075000003
										328:leaf=0.375
									258:[f321<-7454751] yes=329,no=330,missing=329
										329:leaf=0.82105267
										330:leaf=0.225000009
								194:[f41<-12668212] yes=259,no=260,missing=259
									259:leaf=0.300000012
									260:leaf=0.075000003
						84:leaf=0.174999997
					44:[f1385<-11390122] yes=85,no=86,missing=85
						85:[f1533<-9226018] yes=139,no=140,missing=139
							139:[f201<-13094327] yes=195,no=196,missing=195
								195:leaf=0.375
								196:leaf=0.100000009
							140:leaf=0.155555561
						86:[f1<-11947183] yes=141,no=142,missing=141
							141:leaf=0.491666675
							142:leaf=0.100000009
				22:leaf=0.753846169
	2:[f1517<-10701607] yes=5,no=6,missing=5
		5:[f1545<-11094953] yes=11,no=12,missing=11
			11:[f1481<-12668340] yes=23,no=24,missing=23
				23:[f1557<-12209584] yes=45,no=46,missing=45
					45:[f1453<-13356473] yes=87,no=88,missing=87
						87:leaf=0.125
						88:leaf=0.514285743
					46:[f1425<-13192632] yes=89,no=90,missing=89
						89:[f1247<-13356473] yes=143,no=144,missing=143
							143:[f1582<-11357354] yes=197,no=198,missing=197
								197:[f1493<-11783341] yes=261,no=262,missing=261
									261:[f117<-13290936] yes=331,no=332,missing=331
										331:leaf=1.2403847
										332:leaf=0.5
									262:leaf=0.487500012
								198:[f1527<-13356474] yes=263,no=264,missing=263
									263:[f1597<-12602675] yes=333,no=334,missing=333
										333:leaf=0.225000009
										334:leaf=0.900000036
									264:[f117<-12471602] yes=335,no=336,missing=335
										335:leaf=0.112500004
										336:leaf=0.375
							144:[f1244<-12832181] yes=199,no=200,missing=199
								199:leaf=0.075000003
								200:leaf=0.420000017
						90:[f1164<-12864949] yes=145,no=146,missing=145
							145:[f1194<-12537139] yes=201,no=202,missing=201
								201:[f25<-11357227] yes=265,no=266,missing=265
									265:[f1157<-13061558] yes=337,no=338,missing=337
										337:leaf=0.79411763
										338:leaf=0.337500006
									266:leaf=0.075000003
								202:leaf=0.100000009
							146:leaf=0.112500004
				24:[f1450<-12668340] yes=47,no=48,missing=47
					47:[f1539<-11652268] yes=91,no=92,missing=91
						91:[f1413<-12799412] yes=147,no=148,missing=147
							147:leaf=0.160714284
							148:[f1296<-13061558] yes=203,no=204,missing=203
								203:leaf=0.431250006
								204:leaf=0.100000009
						92:leaf=0.585000038
					48:[f1542<-10308133] yes=93,no=94,missing=93
						93:[f1422<-13323705] yes=149,no=150,missing=149
							149:[f1505<-9160354] yes=205,no=206,missing=205
								205:leaf=0.864705861
								206:leaf=0.225000009
							150:[f1499<-13094327] yes=207,no=208,missing=207
								207:leaf=0.737500012
								208:[f1505<-13192632] yes=267,no=268,missing=267
									267:leaf=0.171428591
									268:[f813<-7782815.5] yes=339,no=340,missing=339
										339:leaf=0.558333397
										340:leaf=0.075000003
						94:[f1542<-9816355] yes=151,no=152,missing=151
							151:leaf=0.112500004
							152:leaf=0.46875003
			12:[f96<-12668340] yes=25,no=26,missing=25
				25:[f77<-12144048] yes=49,no=50,missing=49
					49:[f1514<-8176543] yes=95,no=96,missing=95
						95:[f44<-12996022] yes=153,no=154,missing=153
							153:[f1567<-12668340] yes=209,no=210,missing=209
								209:[f1484<-11783469] yes=269,no=270,missing=269
									269:[f1145<-7979679] yes=341,no=342,missing=341
										341:leaf=0.881250024
										342:leaf=0.360000014
									270:[f1099<-13356473] yes=343,no=344,missing=343
										343:leaf=0.400000036
										344:leaf=0.075000003
								210:[f1354<-12799412] yes=271,no=272,missing=271
									271:[f1557<-6700191.5] yes=345,no=346,missing=345
										345:leaf=0.232258067
										346:leaf=0.415000021
									272:[f13<-11914288] yes=347,no=348,missing=347
										347:leaf=0.482352972
										348:leaf=0.075000003
							154:leaf=0.699999988
						96:[f1521<-1973301.5] yes=155,no=156,missing=155
							155:[f865<-11881774] yes=211,no=212,missing=211
								211:[f988<-11816110] yes=273,no=274,missing=273
									273:[f241<-12733876] yes=349,no=350,missing=349
										349:leaf=0.375
										350:leaf=0.075000003
									274:leaf=0.120000005
								212:leaf=0.138461545
							156:[f1130<-7815711] yes=213,no=214,missing=213
								213:leaf=0.495000005
								214:leaf=0.100000009
					50:leaf=0.76666671
				26:[f345<-9619364] yes=51,no=52,missing=51
					51:leaf=0.778125048
					52:leaf=0.300000012
		6:[f114<-9914788] yes=13,no=14,missing=13
			13:[f1262<-9914788] yes=27,no=28,missing=27
				27:[f1277<-8438944] yes=53,no=54,missing=53
					53:[f68<-13356474] yes=97,no=98,missing=97
						97:[f1594<-8176543] yes=157,no=158,missing=157
							157:[f1557<-11980206] yes=215,no=216,missing=215
								215:[f727<-13323704] yes=275,no=276,missing=275
									275:leaf=1.02857149
									276:leaf=0.360000014
								216:[f1271<-7192351] yes=277,no=278,missing=277
									277:[f37<-12799412] yes=351,no=352,missing=351
										351:leaf=0.443558306
										352:leaf=0.669230759
									278:leaf=0.168750003
							158:[f597<-13127095] yes=217,no=218,missing=217
								217:[f1545<-2991278] yes=279,no=280,missing=279
									279:[f1536<-4534181.5] yes=353,no=354,missing=353
										353:leaf=0.297794133
										354:leaf=0.176923096
									280:[f1311<-5354786.5] yes=355,no=356,missing=355
										355:leaf=0.356250018
										356:leaf=0.787500024
								218:[f1099<-12242352] yes=281,no=282,missing=281
									281:[f914<-8176543] yes=357,no=358,missing=357
										357:leaf=0.693750024
										358:leaf=0.375
									282:[f4<-13454778] yes=359,no=360,missing=359
										359:leaf=0.387500018
										360:leaf=0.125
						98:[f1271<-9029281] yes=159,no=160,missing=159
							159:[f431<-7618847] yes=219,no=220,missing=219
								219:[f1247<-3549354.5] yes=283,no=284,missing=283
									283:[f1277<-9750691] yes=361,no=362,missing=361
										361:leaf=0.773333371
										362:leaf=0.075000003
									284:leaf=0.075000003
								220:[f22<-13094327] yes=285,no=286,missing=285
									285:leaf=0.300000012
									286:leaf=0.075000003
							160:[f834<-9717923] yes=221,no=222,missing=221
								221:leaf=0.160714284
								222:[f644<-11652268] yes=287,no=288,missing=287
									287:leaf=0.825000048
									288:[f19<-13258168] yes=363,no=364,missing=363
										363:leaf=0.100000009
										364:leaf=0.300000012
					54:[f1367<-12733876] yes=99,no=100,missing=99
						99:[f471<-6175264] yes=161,no=162,missing=161
							161:[f1437<-12078383] yes=223,no=224,missing=223
								223:[f1213<-12602675] yes=289,no=290,missing=289
									289:leaf=0.375
									290:leaf=0.112500004
								224:[f1207<-13028790] yes=291,no=292,missing=291
									291:leaf=0.147580653
									292:[f44<-13192632] yes=365,no=366,missing=365
										365:leaf=0.337500006
										366:leaf=0.112500004
							162:leaf=0.5
						100:[f1502<-8406176] yes=163,no=164,missing=163
							163:[f514<-13454778] yes=225,no=226,missing=225
								225:[f884<-13094327] yes=293,no=294,missing=293
									293:leaf=0.125
									294:leaf=0.375
								226:[f1367<-12570034] yes=295,no=296,missing=295
									295:leaf=0.075000003
									296:[f1496<-12799412] yes=367,no=368,missing=367
										367:leaf=0.693750024
										368:leaf=0.42187503
							164:[f1059<-12438834] yes=227,no=228,missing=227
								227:leaf=0.159375012
								228:[f1250<-6864287] yes=297,no=298,missing=297
									297:[f225<-10012964] yes=369,no=370,missing=369
										369:leaf=0.41785717
										370:leaf=0.075000003
									298:leaf=0.125
				28:[f517<-12144048] yes=55,no=56,missing=55
					55:[f1499<-5715745] yes=101,no=102,missing=101
						101:[f1493<-5387554] yes=165,no=166,missing=165
							165:[f1508<-1611961] yes=229,no=230,missing=229
								229:[f1542<-28393] yes=299,no=300,missing=299
									299:[f1<-12012592] yes=371,no=372,missing=371
										371:leaf=0.504166722
										372:leaf=0.075000003
									300:leaf=0.125
								230:leaf=0.160000011
							166:leaf=0.157894745
						102:[f1447<-23551.5] yes=167,no=168,missing=167
							167:[f1459<-11095081] yes=231,no=232,missing=231
								231:[f370<-12897718] yes=301,no=302,missing=301
									301:leaf=0.385714293
									302:leaf=0.125
								232:leaf=0.155067578
							168:leaf=0.637500048
					56:[f1597<-2301746.5] yes=103,no=104,missing=103
						103:[f1597<-7028255] yes=169,no=170,missing=169
							169:[f1484<-29029.5] yes=233,no=234,missing=233
								233:[f16<-10308133] yes=303,no=304,missing=303
									303:[f1419<-13061558] yes=373,no=374,missing=373
										373:leaf=0.1875
										374:leaf=0.469565243
									304:leaf=0.100000009
								234:leaf=0.125
							170:leaf=0.138461545
						104:[f739<-8504608] yes=171,no=172,missing=171
							171:[f148<-11816237] yes=235,no=236,missing=235
								235:[f401<-8865185] yes=305,no=306,missing=305
									305:leaf=0.915000021
									306:leaf=0.375
								236:leaf=0.100000009
							172:[f434<-10406438] yes=237,no=238,missing=237
								237:leaf=0.112500004
								238:[f336<-13290936] yes=307,no=308,missing=307
									307:leaf=0.075000003
									308:leaf=0.442857146
			14:[f1151<-7225119] yes=29,no=30,missing=29
				29:[f1317<-1086526] yes=57,no=58,missing=57
					57:leaf=0.736082494
					58:leaf=0.100000009
				30:[f28<-7060516.5] yes=59,no=60,missing=59
					59:leaf=0.162500009
					60:leaf=0.600000024
booster[1]:
0:[f1557<-12438962] yes=1,no=2,missing=1
	1:[f1484<-11980206] yes=3,no=4,missing=3
		3:[f1517<-11521196] yes=7,no=8,missing=7
			7:[f1588<-11291818] yes=15,no=16,missing=15
				15:[f1554<-11750572] yes=31,no=32,missing=31
					31:[f1182<-11258922] yes=61,no=62,missing=61
						61:[f1597<-11357354] yes=109,no=110,missing=109
							109:[f1536<-13258168] yes=175,no=176,missing=175
								175:[f1287<-12176688] yes=247,no=248,missing=247
									247:[f1370<-11553964] yes=311,no=312,missing=311
										311:leaf=0.933738649
										312:leaf=0.0581250004
									248:leaf=0.0562500022
								176:[f1554<-13159864] yes=249,no=250,missing=249
									249:[f1191<-12996022] yes=313,no=314,missing=313
										313:leaf=0.807824254
										314:leaf=0.046875
									250:[f1570<-12537266] yes=315,no=316,missing=315
										315:leaf=0.0918750018
										316:leaf=0.524368942
							110:[f1361<-12012974] yes=177,no=178,missing=177
								177:[f1527<-12471730] yes=251,no=252,missing=251
									251:[f1551<-12471730] yes=317,no=318,missing=317
										317:leaf=0.832169354
										318:leaf=0.26619643
									252:[f1407<-13454778] yes=319,no=320,missing=319
										319:leaf=0.100227259
										320:leaf=0.422109276
								178:leaf=0.100227259
						62:[f296<-13389242] yes=111,no=112,missing=111
							111:leaf=0.368141413
							112:leaf=0.0562500022
					32:[f1521<-12144048] yes=63,no=64,missing=63
						63:[f1407<-11258922] yes=113,no=114,missing=113
							113:leaf=0.698612988
							114:leaf=0.278696179
						64:[f1425<-12832181] yes=115,no=116,missing=115
							115:leaf=0.0962500051
							116:leaf=0.325641453
				16:[f1588<-11094953] yes=33,no=34,missing=33
					33:[f1597<-13225400] yes=65,no=66,missing=65
						65:[f1447<-12832181] yes=117,no=118,missing=117
							117:leaf=-0.16320315
							118:leaf=0.0637500063
						66:leaf=0.428009421
					34:[f1524<-9455522] yes=67,no=68,missing=67
						67:[f1459<-13389242] yes=119,no=120,missing=119
							119:[f1047<-13225400] yes=179,no=180,missing=179
								179:[f1007<-13454778] yes=253,no=254,missing=253
									253:[f1028<-12668340] yes=321,no=322,missing=321
										321:leaf=0.809070706
										322:leaf=0.0581250004
									254:leaf=0.0562500022
								180:leaf=0.0775000006
							120:[f1477<-13225400] yes=181,no=182,missing=181
								181:[f1357<-13192632] yes=255,no=256,missing=255
									255:leaf=-0.00999999046
									256:[f441<-13323704] yes=323,no=324,missing=323
										323:leaf=0.0480000004
										324:leaf=0.193750009
								182:leaf=0.524467528
						68:leaf=0.14625001
			8:[f1370<-12406194] yes=17,no=18,missing=17
				17:[f945<-12471602] yes=35,no=36,missing=35
					35:[f1539<-12766644] yes=69,no=70,missing=69
						69:[f1576<-12602802] yes=121,no=122,missing=121
							121:[f1567<-11226154] yes=183,no=184,missing=183
								183:leaf=0.27209112
								184:[f1157<-13323704] yes=257,no=258,missing=257
									257:leaf=0.0695000067
									258:leaf=-0.00999999046
							122:leaf=0.46001181
						70:[f1487<-12537266] yes=123,no=124,missing=123
							123:leaf=0.693537354
							124:leaf=0.214285731
					36:[f25<-13389242] yes=71,no=72,missing=71
						71:leaf=0.229928568
						72:leaf=0.0800000057
				18:leaf=0.138535723
		4:[f1564<-12406194] yes=9,no=10,missing=9
			9:[f1542<-13159864] yes=19,no=20,missing=19
				19:[f1524<-10931112] yes=37,no=38,missing=37
					37:[f1597<-10865576] yes=73,no=74,missing=73
						73:[f853<-13323704] yes=125,no=126,missing=125
							125:[f1342<-12996022] yes=185,no=186,missing=185
								185:leaf=0.910050035
								186:leaf=0.470999986
							126:leaf=0.348749995
						74:[f1370<-13061558] yes=127,no=128,missing=127
							127:leaf=0.384750038
							128:leaf=0.0599999987
					38:leaf=0.0599999987
				20:[f1591<-9881892] yes=39,no=40,missing=39
					39:[f1474<-12668339] yes=75,no=76,missing=75
						75:[f1367<-13192632] yes=129,no=130,missing=129
							129:[f1001<-12242352] yes=187,no=188,missing=187
								187:leaf=0.123750001
								188:leaf=0.297857136
							130:leaf=0.341236621
						76:leaf=0.512028575
					40:leaf=0.74849999
			10:[f96<-13389242] yes=21,no=22,missing=21
				21:[f1499<-9324450] yes=41,no=42,missing=41
					41:[f1542<-13389242] yes=77,no=78,missing=77
						77:[f1597<-11029544] yes=131,no=132,missing=131
							131:[f1437<-12766644] yes=189,no=190,missing=189
								189:[f1376<-13356473] yes=259,no=260,missing=259
									259:[f1428<-11160490] yes=325,no=326,missing=325
										325:leaf=0.118452802
										326:leaf=0.0243750047
									260:leaf=0.0325000063
								190:[f284<-13389242] yes=261,no=262,missing=261
									261:leaf=0.483375043
									262:leaf=0.0637500063
							132:leaf=0.665921092
						78:[f1250<-7618847] yes=133,no=134,missing=133
							133:[f942<-12275120] yes=191,no=192,missing=191
								191:[f1530<-12668339] yes=263,no=264,missing=263
									263:[f1404<-12930486] yes=327,no=328,missing=327
										327:leaf=0.0727272779
										328:leaf=0.348697364
									264:[f1370<-5650082] yes=329,no=330,missing=329
										329:leaf=0.613156796
										330:leaf=0.144999996
								192:leaf=0.278116792
							134:[f41<-12897718] yes=193,no=194,missing=193
								193:leaf=0.28607145
								194:leaf=0.0806250051
					42:[f1582<-5322018] yes=79,no=80,missing=79
						79:[f1524<-5879841] yes=135,no=136,missing=135
							135:[f13<-13159864] yes=195,no=196,missing=195
								195:[f1481<-13159863] yes=265,no=266,missing=265
									265:leaf=0.0516666695
									266:leaf=0.344087303
								196:leaf=0.0516666695
							136:leaf=0.11940477
						80:leaf=0.109673925
				22:[f1281<-1611452] yes=43,no=44,missing=43
					43:[f1514<-2827055] yes=81,no=82,missing=81
						81:leaf=0.534153283
						82:leaf=0.111923076
					44:leaf=0.0516666695
	2:[f1557<-10144164] yes=5,no=6,missing=5
		5:[f1493<-11816110] yes=11,no=12,missing=11
			11:[f1425<-13454778] yes=23,no=24,missing=23
				23:[f1582<-11390122] yes=45,no=46,missing=45
					45:[f1557<-12340657] yes=83,no=84,missing=83
						83:leaf=0.130178571
						84:[f1530<-10406566] yes=137,no=138,missing=137
							137:[f1561<-7290656] yes=197,no=198,missing=197
								197:[f37<-10931112] yes=267,no=268,missing=267
									267:[f324<-12504370] yes=331,no=332,missing=331
										331:leaf=0.786180317
										332:leaf=0.0599999987
									268:leaf=0.0562500022
								198:leaf=0.0508928634
							138:[f650<-12897718] yes=199,no=200,missing=199
								199:leaf=0.368731648
								200:leaf=0.0401612893
					46:[f1450<-12864948] yes=85,no=86,missing=85
						85:[f1496<-11783341] yes=139,no=140,missing=139
							139:[f1548<-13225400] yes=201,no=202,missing=201
								201:[f1450<-13323704] yes=269,no=270,missing=269
									269:leaf=0.00846625026
									270:leaf=0.0901071429
								202:leaf=0.276046872
							140:leaf=0.491025001
						86:[f1450<-12012847] yes=141,no=142,missing=141
							141:leaf=0.764201164
							142:[f1176<-13389242] yes=203,no=204,missing=203
								203:leaf=0.399032682
								204:leaf=0.0492857173
				24:[f1444<-13028790] yes=47,no=48,missing=47
					47:[f637<-12406194] yes=87,no=88,missing=87
						87:[f1530<-12996022] yes=143,no=144,missing=143
							143:[f474<-13454778] yes=205,no=206,missing=205
								205:leaf=0.0999056995
								206:leaf=0.00846625026
							144:[f1468<-13159864] yes=207,no=208,missing=207
								207:leaf=0.0671210885
								208:leaf=0.333480656
						88:leaf=0.466938138
					48:[f1545<-4370087] yes=89,no=90,missing=89
						89:[f1157<-11848878] yes=145,no=146,missing=145
							145:[f1576<-13454778] yes=209,no=210,missing=209
								209:[f1413<-13061558] yes=271,no=272,missing=271
									271:leaf=0.0714285746
									272:leaf=0.372726619
								210:[f1468<-11881774] yes=273,no=274,missing=273
									273:[f1170<-13192632] yes=333,no=334,missing=333
										333:leaf=0.88336575
										334:leaf=0.245294139
									274:[f407<-5617186.5] yes=335,no=336,missing=335
										335:leaf=0.52824384
										336:leaf=0.149374992
							146:leaf=0.286270559
						90:[f108<-13192632] yes=147,no=148,missing=147
							147:leaf=0.00846625026
							148:leaf=0.0714285746
			12:[f41<-13127096] yes=25,no=26,missing=25
				25:[f1594<-4862500] yes=49,no=50,missing=49
					49:[f810<-11881774] yes=91,no=92,missing=91
						91:[f1591<-4337318] yes=149,no=150,missing=149
							149:[f1265<-7979551.5] yes=211,no=212,missing=211
								211:[f1561<-7028255.5] yes=275,no=276,missing=275
									275:[f1034<-13061559] yes=337,no=338,missing=337
										337:leaf=0.284298062
										338:leaf=0.413255364
									276:[f1554<-11652268] yes=339,no=340,missing=339
										339:leaf=0.0961616114
										340:leaf=0.267695099
								212:[f133<-12668212] yes=277,no=278,missing=277
									277:leaf=0.0892592221
									278:leaf=0.0126993749
							150:leaf=0.629889727
						92:[f1517<-10504870] yes=151,no=152,missing=151
							151:[f361<-9324450] yes=213,no=214,missing=213
								213:leaf=0.568840683
								214:leaf=0.253260523
							152:[f16<-11652014] yes=215,no=216,missing=215
								215:leaf=0.314121723
								216:leaf=0.0517398678
					50:[f1357<-9193122] yes=93,no=94,missing=93
						93:[f1471<-12733876] yes=153,no=154,missing=153
							153:leaf=0.202264711
							154:[f751<-10144164] yes=217,no=218,missing=217
								217:leaf=0.0961518884
								218:leaf=0.0268749949
						94:leaf=0.283793539
				26:[f1517<-7946911.5] yes=51,no=52,missing=51
					51:leaf=0.558432996
					52:[f1<-4762290] yes=95,no=96,missing=95
						95:leaf=0.0694459453
						96:leaf=0.264587641
		6:[f77<-11816110] yes=13,no=14,missing=13
			13:[f1262<-10275365] yes=27,no=28,missing=27
				27:[f62<-13454778] yes=53,no=54,missing=53
					53:[f388<-9717923] yes=97,no=98,missing=97
						97:[f1277<-8865184] yes=155,no=156,missing=155
							155:[f1284<-7126815] yes=219,no=220,missing=219
								219:[f1084<-9881892] yes=279,no=280,missing=279
									279:[f90<-11717932] yes=341,no=342,missing=341
										341:leaf=0.275111586
										342:leaf=0.575048387
									280:[f1521<-1907638] yes=343,no=344,missing=343
										343:leaf=0.289940357
										344:leaf=0.671240985
								220:[f1148<-12570034] yes=281,no=282,missing=281
									281:[f1502<-9488418] yes=345,no=346,missing=345
										345:leaf=0.213240117
										346:leaf=0.0743883774
									282:[f1419<-12996022] yes=347,no=348,missing=347
										347:leaf=0.0565888956
										348:leaf=0.30467388
							156:[f1477<-22016] yes=221,no=222,missing=221
								221:[f1517<-6437664] yes=283,no=284,missing=283
									283:[f1505<-3877801] yes=349,no=350,missing=349
										349:leaf=0.317894995
										350:leaf=0.0736913159
									284:[f841<-11914542] yes=351,no=352,missing=351
										351:leaf=0.108756684
										352:leaf=0.256645411
								222:leaf=0.513153195
						98:[f1508<-10963880] yes=157,no=158,missing=157
							157:[f939<-10963753] yes=223,no=224,missing=223
								223:[f96<-13290936] yes=285,no=286,missing=285
									285:leaf=0.735756397
									286:leaf=0.199687496
								224:leaf=0.270093769
							158:[f268<-8209311.5] yes=225,no=226,missing=225
								225:[f1511<-363972.5] yes=287,no=288,missing=287
									287:[f1308<-34763] yes=353,no=354,missing=353
										353:leaf=0.316463351
										354:leaf=0.0657127053
									288:[f130<-13061558] yes=355,no=356,missing=355
										355:leaf=0.0951463208
										356:leaf=0.226905912
								226:[f145<-11553964] yes=289,no=290,missing=289
									289:leaf=0.575279951
									290:[f1<-9881892] yes=357,no=358,missing=357
										357:leaf=0.244768858
										358:leaf=0.0599999987
					54:[f1545<-27119] yes=99,no=100,missing=99
						99:[f1321<-4041769] yes=159,no=160,missing=159
							159:[f379<-6208032] yes=227,no=228,missing=227
								227:[f1551<-20480] yes=291,no=292,missing=291
									291:[f1407<-2827183.5] yes=359,no=360,missing=359
										359:leaf=0.586606562
										360:leaf=0.22389859
									292:leaf=0.0496875048
								228:[f13<-12274866] yes=293,no=294,missing=293
									293:leaf=0.216026783
									294:leaf=0.0508928634
							160:[f1<-12242097] yes=229,no=230,missing=229
								229:[f16<-9947301] yes=295,no=296,missing=295
									295:leaf=0.0466826856
									296:leaf=0.00846625026
								230:leaf=0.180000007
						100:[f16<-12471602] yes=161,no=162,missing=161
							161:leaf=0.0783093423
							162:leaf=0.0168749932
				28:[f1499<-6470560] yes=55,no=56,missing=55
					55:[f1508<-5945632.5] yes=101,no=102,missing=101
						101:[f1237<-4402982] yes=163,no=164,missing=163
							163:[f1502<-2137524] yes=231,no=232,missing=231
								231:[f1576<-24826] yes=297,no=298,missing=297
									297:[f19<-13127095] yes=361,no=362,missing=361
										361:leaf=0.306469023
										362:leaf=0.508253574
									298:leaf=0.0769736916
								232:[f1<-12111024] yes=299,no=300,missing=299
									299:leaf=0.0819078982
									300:leaf=0.012749997
							164:[f281<-11849006] yes=233,no=234,missing=233
								233:leaf=0.655785084
								234:leaf=0.275148839
						102:[f841<-8274847.5] yes=165,no=166,missing=165
							165:[f1597<-7225247] yes=235,no=236,missing=235
								235:[f136<-12668212] yes=301,no=302,missing=301
									301:leaf=0.268158555
									302:leaf=0.0818526372
								236:[f314<-7881247.5] yes=303,no=304,missing=303
									303:leaf=0.104143664
									304:leaf=0.0187500007
							166:[f164<-12766644] yes=237,no=238,missing=237
								237:leaf=0.530156255
								238:[f7<-12438962] yes=305,no=306,missing=305
									305:leaf=0.256819367
									306:leaf=0.0717105269
					56:[f1447<-23551.5] yes=103,no=104,missing=103
						103:[f1585<-11095081] yes=167,no=168,missing=167
							167:[f345<-11881646] yes=239,no=240,missing=239
								239:leaf=0.39119193
								240:[f16<-12143792] yes=307,no=308,missing=307
									307:leaf=0.0811103284
									308:leaf=0.00846625026
							168:[f1477<-27628] yes=241,no=242,missing=241
								241:[f1585<-25845] yes=309,no=310,missing=309
									309:[f1441<-29666.5] yes=363,no=364,missing=363
										363:leaf=0.110999838
										364:leaf=0.228450611
									310:[f1308<-9160481] yes=365,no=366,missing=365
										365:leaf=0.275130868
										366:leaf=0.0968412235
								242:leaf=0.387437522
						104:[f373<-7585824.5] yes=169,no=170,missing=169
							169:leaf=0.623250008
							170:leaf=0.240433231
			14:[f1157<-6798623.5] yes=29,no=30,missing=29
				29:[f1317<-34125.5] yes=57,no=58,missing=57
					57:[f1228<-493897.5] yes=105,no=106,missing=105
						105:[f1557<-28265.5] yes=171,no=172,missing=171
							171:[f948<-1776183.5] yes=243,no=244,missing=243
								243:leaf=0.530235887
								244:leaf=0.246160731
							172:[f34<-11652268] yes=245,no=246,missing=245
								245:leaf=0.268214285
								246:leaf=0.0528629087
						106:leaf=0.0637500063
					58:leaf=0.0849294439
				30:[f511<-8209311.5] yes=59,no=60,missing=59
					59:[f1397<-8078111.5] yes=107,no=108,missing=107
						107:[f28<-13454778] yes=173,no=174,missing=173
							173:leaf=0.0187500007
							174:leaf=-0.0354123861
						108:leaf=0.0991241261
					60:leaf=0.453430235
booster[2]:
0:[f1557<-12438962] yes=1,no=2,missing=1
	1:[f1484<-11980206] yes=3,no=4,missing=3
		3:[f1554<-13127095] yes=7,no=8,missing=7
			7:[f1588<-12930486] yes=15,no=16,missing=15
				15:[f1284<-11914542] yes=31,no=32,missing=31
					31:[f1385<-10111396] yes=63,no=64,missing=63
						63:[f1391<-10603176] yes=113,no=114,missing=113
							113:[f1597<-9553954] yes=169,no=170,missing=169
								169:[f1191<-12144048] yes=237,no=238,missing=237
									237:[f1225<-13290936] yes=315,no=316,missing=315
										315:leaf=0.669594705
										316:leaf=0.250843734
									238:leaf=0.208561987
								170:leaf=0.0790568069
							114:leaf=0.0238205381
						64:[f22<-12373298] yes=115,no=116,missing=115
							115:leaf=-0.0611736439
							116:leaf=0.198841289
					32:leaf=0.0607036017
				16:[f1361<-11521196] yes=33,no=34,missing=33
					33:[f1468<-9849124] yes=65,no=66,missing=65
						65:[f1367<-12275120] yes=117,no=118,missing=117
							117:[f1373<-9389986] yes=171,no=172,missing=171
								171:[f1564<-12668340] yes=239,no=240,missing=239
									239:[f1594<-11291818] yes=317,no=318,missing=317
										317:leaf=0.497723788
										318:leaf=0.163835019
									240:[f1191<-13192632] yes=319,no=320,missing=319
										319:leaf=0.627462924
										320:leaf=0.133188635
								172:leaf=0.0500214286
							118:[f973<-13094327] yes=173,no=174,missing=173
								173:[f847<-13323704] yes=241,no=242,missing=241
									241:leaf=0.0483749993
									242:leaf=-0.0307345036
								174:leaf=0.213289917
						66:[f545<-13159863] yes=119,no=120,missing=119
							119:leaf=0.0375749953
							120:leaf=-0.0667004064
					34:[f441<-13323704] yes=67,no=68,missing=67
						67:leaf=0.0588667579
						68:leaf=0.222505301
			8:[f1514<-10865576] yes=17,no=18,missing=17
				17:[f1524<-9914788] yes=35,no=36,missing=35
					35:[f1554<-13028790] yes=69,no=70,missing=69
						69:leaf=0.0630625039
						70:[f1410<-12307888] yes=121,no=122,missing=121
							121:[f1<-13061558] yes=175,no=176,missing=175
								175:[f1474<-10242596] yes=243,no=244,missing=243
									243:[f1576<-12766644] yes=321,no=322,missing=321
										321:leaf=0.437168092
										322:leaf=0.64284873
									244:[f1437<-12864949] yes=323,no=324,missing=323
										323:leaf=0.0247083381
										324:leaf=0.316921115
								176:[f1<-8535724] yes=245,no=246,missing=245
									245:leaf=-0.0576105975
									246:leaf=0.176458061
							122:[f1447<-13290936] yes=177,no=178,missing=177
								177:[f1050<-12996022] yes=247,no=248,missing=247
									247:leaf=0.0795217976
									248:leaf=0.251499116
								178:leaf=0.398267686
					36:[f1124<-13290936] yes=71,no=72,missing=71
						71:leaf=0.0552187525
						72:leaf=0.224370077
				18:[f1594<-11291818] yes=37,no=38,missing=37
					37:leaf=0.328422844
					38:[f1594<-10209829] yes=73,no=74,missing=73
						73:[f702<-13159863] yes=123,no=124,missing=123
							123:leaf=0.0163205359
							124:leaf=0.0682660788
						74:[f185<-13159863] yes=125,no=126,missing=125
							125:leaf=0.205202416
							126:leaf=0.0455624983
		4:[f1441<-13094327] yes=9,no=10,missing=9
			9:[f1597<-12537266] yes=19,no=20,missing=19
				19:[f1207<-13454778] yes=39,no=40,missing=39
					39:[f1524<-9521186] yes=75,no=76,missing=75
						75:[f1330<-13454778] yes=127,no=128,missing=127
							127:leaf=0.728358984
							128:leaf=0.309832245
						76:leaf=0.036777541
					40:[f324<-12799412] yes=77,no=78,missing=77
						77:leaf=0.0376875065
						78:leaf=0.185741544
				20:[f1557<-13389242] yes=41,no=42,missing=41
					41:[f1151<-13356473] yes=79,no=80,missing=79
						79:[f1216<-13389242] yes=129,no=130,missing=129
							129:[f361<-10307880] yes=179,no=180,missing=179
								179:[f1585<-13192632] yes=249,no=250,missing=249
									249:[f201<-13192632] yes=325,no=326,missing=325
										325:leaf=0.0916249976
										326:leaf=0.353947639
									250:[f1010<-12996022] yes=327,no=328,missing=327
										327:leaf=0.529789507
										328:leaf=0.134287477
								180:leaf=0.0451874994
							130:leaf=0.103447184
						80:leaf=0.0487683602
					42:[f1477<-13323704] yes=81,no=82,missing=81
						81:leaf=0.0573365428
						82:leaf=0.272295058
			10:[f96<-12668340] yes=21,no=22,missing=21
				21:[f1499<-12144048] yes=43,no=44,missing=43
					43:[f1361<-5617186.5] yes=83,no=84,missing=83
						83:[f1585<-7815711] yes=131,no=132,missing=131
							131:[f1404<-13323705] yes=181,no=182,missing=181
								181:[f1397<-13389242] yes=251,no=252,missing=251
									251:leaf=0.0778209716
									252:leaf=0.301489383
								182:[f1431<-12144048] yes=253,no=254,missing=253
									253:[f1444<-9717923] yes=329,no=330,missing=329
										329:leaf=0.561953306
										330:leaf=0.321869284
									254:leaf=0.241212994
							132:[f201<-13356473] yes=183,no=184,missing=183
								183:leaf=0.599497676
								184:leaf=0.0601245798
						84:[f34<-12012592] yes=133,no=134,missing=133
							133:leaf=0.0493102074
							134:leaf=0.15703249
					44:[f1567<-7487647] yes=85,no=86,missing=85
						85:[f1551<-6404896] yes=135,no=136,missing=135
							135:[f1321<-920391.5] yes=185,no=186,missing=185
								185:[f241<-13159864] yes=255,no=256,missing=255
									255:[f1441<-12471730] yes=331,no=332,missing=331
										331:leaf=0.0207187515
										332:leaf=0.224507079
									256:leaf=0.37887916
								186:leaf=0.0603138916
							136:leaf=0.0694948435
						86:[f1311<-13192632] yes=137,no=138,missing=137
							137:[f1404<-12471730] yes=187,no=188,missing=187
								187:[f1241<-12701108] yes=257,no=258,missing=257
									257:leaf=-0.0700177252
									258:leaf=0.0364770554
								188:[f1484<-9226018] yes=259,no=260,missing=259
									259:leaf=0.178474039
									260:leaf=0.075134106
							138:[f281<-12570035] yes=189,no=190,missing=189
								189:leaf=0.332897276
								190:leaf=0.149575427
				22:[f917<-10504743] yes=45,no=46,missing=45
					45:leaf=0.386083633
					46:leaf=0.0951346159
	2:[f1517<-10701607] yes=5,no=6,missing=5
		5:[f1481<-13356474] yes=11,no=12,missing=11
			11:[f1511<-5748641.5] yes=23,no=24,missing=23
				23:[f1557<-12242352] yes=47,no=48,missing=47
					47:[f1324<-12602675] yes=87,no=88,missing=87
						87:[f1397<-11389614] yes=139,no=140,missing=139
							139:leaf=0.0667178631
							140:leaf=-0.0616770424
						88:leaf=0.271226764
					48:[f1407<-11324458] yes=89,no=90,missing=89
						89:[f1499<-12766644] yes=141,no=142,missing=141
							141:[f391<-13159863] yes=191,no=192,missing=191
								191:[f1493<-11881774] yes=261,no=262,missing=261
									261:[f1241<-13127096] yes=333,no=334,missing=333
										333:leaf=0.685980558
										334:leaf=0.0446089283
									262:leaf=0.210452139
								192:[f77<-13159863] yes=263,no=264,missing=263
									263:leaf=0.0612688661
									264:leaf=0.250533938
							142:[f1490<-13127095] yes=193,no=194,missing=193
								193:[f1465<-13356473] yes=265,no=266,missing=265
									265:leaf=0.0855659768
									266:leaf=0.254872441
								194:[f1087<-12701108] yes=267,no=268,missing=267
									267:[f339<-9914660] yes=335,no=336,missing=335
										335:leaf=0.515826404
										336:leaf=0.129730374
									268:leaf=0.108357988
						90:[f1444<-12012846] yes=143,no=144,missing=143
							143:[f1247<-13356473] yes=195,no=196,missing=195
								195:leaf=0.153830528
								196:[f1068<-12930486] yes=269,no=270,missing=269
									269:leaf=0.0224832594
									270:leaf=-0.00147392752
							144:[f376<-9914660] yes=197,no=198,missing=197
								197:leaf=0.365575373
								198:leaf=0.13600935
				24:[f28<-11127722] yes=49,no=50,missing=49
					49:[f34<-12471730] yes=91,no=92,missing=91
						91:leaf=0.0672541484
						92:leaf=0.0186993424
					50:leaf=0.232464626
			12:[f56<-13127096] yes=25,no=26,missing=25
				25:[f1487<-13454778] yes=51,no=52,missing=51
					51:[f1527<-12668339] yes=93,no=94,missing=93
						93:[f1364<-12996022] yes=145,no=146,missing=145
							145:[f1250<-13290936] yes=199,no=200,missing=199
								199:[f1456<-13192632] yes=271,no=272,missing=271
									271:leaf=0.637647986
									272:leaf=0.382524908
								200:leaf=0.0401785709
							146:[f219<-13454778] yes=201,no=202,missing=201
								201:leaf=0.148047552
								202:leaf=0.0168582574
						94:[f151<-12799412] yes=147,no=148,missing=147
							147:[f1496<-13356473] yes=203,no=204,missing=203
								203:[f1105<-13356473] yes=273,no=274,missing=273
									273:leaf=0.0916731358
									274:leaf=0.00824815035
								204:[f1441<-13389242] yes=275,no=276,missing=275
									275:leaf=0.0396501906
									276:[f4<-12570034] yes=337,no=338,missing=337
										337:leaf=0.2364714
										338:leaf=0.0129640289
							148:leaf=0.483012468
					52:[f44<-13389242] yes=95,no=96,missing=95
						95:[f1582<-8012447] yes=149,no=150,missing=149
							149:[f1573<-2203061] yes=205,no=206,missing=205
								205:[f761<-7225247] yes=277,no=278,missing=277
									277:[f1573<-6175136] yes=339,no=340,missing=339
										339:leaf=0.216886207
										340:leaf=0.0787884966
									278:[f10<-9521059] yes=341,no=342,missing=341
										341:leaf=0.370399743
										342:leaf=0.0414750278
								206:leaf=0.469161391
							150:[f1530<-2761391.5] yes=207,no=208,missing=207
								207:[f1194<-12340657] yes=279,no=280,missing=279
									279:[f428<-12012592] yes=343,no=344,missing=343
										343:leaf=0.0485961251
										344:leaf=0.163119018
									280:[f25<-12996022] yes=345,no=346,missing=345
										345:leaf=0.207859948
										346:leaf=0.0329644829
								208:[f1241<-3319596] yes=281,no=282,missing=281
									281:[f13<-12996022] yes=347,no=348,missing=347
										347:leaf=0.220927089
										348:leaf=0.0386092216
									282:leaf=0.0235113148
						96:[f976<-13159863] yes=151,no=152,missing=151
							151:leaf=0.426466674
							152:[f47<-12635444] yes=209,no=210,missing=209
								209:leaf=0.0168582574
								210:leaf=0.102320634
				26:[f1496<-165070] yes=53,no=54,missing=53
					53:leaf=0.401937336
					54:leaf=0.0428984836
		6:[f114<-9914788] yes=13,no=14,missing=13
			13:[f1274<-12144048] yes=27,no=28,missing=27
				27:[f77<-12602803] yes=55,no=56,missing=55
					55:[f1557<-11980206] yes=97,no=98,missing=97
						97:[f1121<-13094327] yes=153,no=154,missing=153
							153:[f1333<-12766644] yes=211,no=212,missing=211
								211:leaf=0.627840161
								212:leaf=0.141477704
							154:[f41<-13389242] yes=213,no=214,missing=213
								213:leaf=0.197784543
								214:leaf=0.0160957407
						98:[f481<-9980196] yes=155,no=156,missing=155
							155:[f1201<-9291554] yes=215,no=216,missing=215
								215:[f1450<-12864948] yes=283,no=284,missing=283
									283:[f1521<-12209584] yes=349,no=350,missing=349
										349:leaf=0.0785177648
										350:leaf=0.240568981
									284:[f1508<-12996022] yes=351,no=352,missing=351
										351:leaf=0.440615088
										352:leaf=0.202874497
								216:[f1484<-6404896] yes=285,no=286,missing=285
									285:[f1161<-10504870] yes=353,no=354,missing=353
										353:leaf=0.211332202
										354:leaf=0.0606844239
									286:[f1554<-6339232] yes=355,no=356,missing=355
										355:leaf=0.0345013253
										356:leaf=0.0708779991
							156:[f287<-11324458] yes=217,no=218,missing=217
								217:[f1164<-11193386] yes=287,no=288,missing=287
									287:leaf=0.257796437
									288:[f468<-8766880] yes=357,no=358,missing=357
										357:leaf=0.0417808555
										358:leaf=0.177586079
								218:[f665<-12143920] yes=289,no=290,missing=289
									289:leaf=0.541368067
									290:[f19<-10406566] yes=359,no=360,missing=359
										359:leaf=0.283777267
										360:leaf=0.00719631324
					56:[f1597<-29921.5] yes=99,no=100,missing=99
						99:[f1194<-8438944] yes=157,no=158,missing=157
							157:[f388<-6732959.5] yes=219,no=220,missing=219
								219:leaf=0.402499914
								220:leaf=0.0873396099
							158:[f31<-13356473] yes=221,no=222,missing=221
								221:leaf=0.0545035228
								222:leaf=0.176551208
						100:leaf=0.0787922144
				28:[f511<-12766644] yes=57,no=58,missing=57
					57:[f1591<-7487647] yes=101,no=102,missing=101
						101:[f31<-13454778] yes=159,no=160,missing=159
							159:[f345<-12766644] yes=223,no=224,missing=223
								223:[f1317<-4928163.5] yes=291,no=292,missing=291
									291:[f1594<-33361] yes=361,no=362,missing=361
										361:leaf=0.226245925
										362:leaf=0.0749765188
									292:[f394<-9455522] yes=363,no=364,missing=363
										363:leaf=0.0653307438
										364:leaf=-0.0328004844
								224:[f1256<-8373279.5] yes=293,no=294,missing=293
									293:[f721<-13159863] yes=365,no=366,missing=365
										365:leaf=0.0633772835
										366:leaf=0.189234346
									294:[f671<-13356473] yes=367,no=368,missing=367
										367:leaf=-0.00746396231
										368:leaf=0.0581236854
							160:leaf=0.399051487
						102:[f1268<-11488427] yes=161,no=162,missing=161
							161:[f601<-13454778] yes=225,no=226,missing=225
								225:[f1274<-10013092] yes=295,no=296,missing=295
									295:[f1527<-12766644] yes=369,no=370,missing=369
										369:leaf=0.0288995337
										370:leaf=0.299429357
									296:[f1545<-3450923.5] yes=371,no=372,missing=371
										371:leaf=0.0550650023
										372:leaf=0.18707189
								226:[f1499<-11389995] yes=297,no=298,missing=297
									297:leaf=-0.0459391624
									298:[f241<-9389986] yes=373,no=374,missing=373
										373:leaf=0.0650067404
										374:leaf=0.0183858275
							162:[f407<-9062049] yes=227,no=228,missing=227
								227:[f1274<-11783341] yes=299,no=300,missing=299
									299:[f871<-12471602] yes=375,no=376,missing=375
										375:leaf=0.0369431376
										376:leaf=-0.0361044854
									300:[f841<-11881774] yes=377,no=378,missing=377
										377:leaf=0.064665556
										378:leaf=0.100727692
								228:[f219<-12701108] yes=301,no=302,missing=301
									301:leaf=0.211709097
									302:leaf=0.0495433398
					58:[f1597<-2531633] yes=103,no=104,missing=103
						103:[f1154<-11488427] yes=163,no=164,missing=163
							163:[f1305<-5190691] yes=229,no=230,missing=229
								229:[f397<-9029153] yes=303,no=304,missing=303
									303:[f588<-12373298] yes=379,no=380,missing=379
										379:leaf=0.214545399
										380:leaf=0.384272903
									304:[f754<-12471602] yes=381,no=382,missing=381
										381:leaf=0.0544428341
										382:leaf=0.186097831
								230:[f185<-10570534] yes=305,no=306,missing=305
									305:leaf=0.0665395111
									306:leaf=-0.0328004844
							164:[f976<-5190690.5] yes=231,no=232,missing=231
								231:[f1361<-3221036.5] yes=307,no=308,missing=307
									307:[f265<-8406048] yes=383,no=384,missing=383
										383:leaf=0.0658091456
										384:leaf=0.163704216
									308:leaf=0.183969125
								232:leaf=0.244150892
						104:[f951<-11816110] yes=165,no=166,missing=165
							165:[f431<-13127095] yes=233,no=234,missing=233
								233:leaf=0.0860560685
								234:[f1382<-1776311] yes=309,no=310,missing=309
									309:[f794<-6470559.5] yes=385,no=386,missing=385
										385:leaf=0.554088235
										386:leaf=0.237724409
									310:[f22<-12766644] yes=387,no=388,missing=387
										387:leaf=0.155328423
										388:leaf=0.0350898951
							166:[f517<-13323704] yes=235,no=236,missing=235
								235:[f628<-13225400] yes=311,no=312,missing=311
									311:[f16<-13389242] yes=389,no=390,missing=389
										389:leaf=-0.0204267278
										390:leaf=0.00719479332
									312:[f924<-9685155] yes=391,no=392,missing=391
										391:leaf=0.0620902963
										392:leaf=0.137872845
								236:[f994<-11488427] yes=313,no=314,missing=313
									313:[f170<-13225400] yes=393,no=394,missing=393
										393:leaf=0.515749454
										394:leaf=0.174592763
									314:[f1416<-12799412] yes=395,no=396,missing=395
										395:leaf=0.0557182766
										396:leaf=0.211250171
			14:[f1151<-7225119] yes=29,no=30,missing=29
				29:[f1517<-28520] yes=59,no=60,missing=59
					59:[f917<-29794] yes=105,no=106,missing=105
						105:leaf=0.375024229
						106:leaf=0.073320888
					60:[f71<-7815456.5] yes=107,no=108,missing=107
						107:[f31<-11192750] yes=167,no=168,missing=167
							167:leaf=0.0601751693
							168:leaf=-0.051725883
						108:leaf=0.246736333
				30:[f117<-11717933] yes=61,no=62,missing=61
					61:[f317<-11980078] yes=109,no=110,missing=109
						109:leaf=0.0109948041
						110:leaf=0.0627568513
					62:[f68<-12897718] yes=111,no=112,missing=111
						111:leaf=0.0360988155
						112:leaf=0.324253738
booster[3]:
0:[f1557<-12438962] yes=1,no=2,missing=1
	1:[f1441<-13356474] yes=3,no=4,missing=3
		3:[f1481<-13258168] yes=7,no=8,missing=7
			7:[f1431<-10504870] yes=15,no=16,missing=15
				15:[f1385<-10209828] yes=31,no=32,missing=31
					31:[f665<-13225400] yes=63,no=64,missing=63
						63:[f185<-13159863] yes=111,no=112,missing=111
							111:[f1471<-8865312] yes=181,no=182,missing=181
								181:[f1016<-12799412] yes=273,no=274,missing=273
									273:[f1268<-13454778] yes=363,no=364,missing=363
										363:leaf=0.467128992
										364:leaf=0.179664001
									274:leaf=0.134790793
								182:leaf=0.0418562479
							112:leaf=0.0387281217
						64:[f19<-10931112] yes=113,no=114,missing=113
							113:leaf=0.194080219
							114:leaf=0.0323217362
					32:[f176<-12832181] yes=65,no=66,missing=65
						65:leaf=0.045657564
						66:leaf=0.155942872
				16:[f1065<-13454778] yes=33,no=34,missing=33
					33:leaf=0.152013659
					34:leaf=0.0589738525
			8:[f1330<-13258168] yes=17,no=18,missing=17
				17:[f1585<-13225400] yes=35,no=36,missing=35
					35:[f1530<-13323704] yes=67,no=68,missing=67
						67:[f1431<-12930486] yes=115,no=116,missing=115
							115:[f1357<-12996022] yes=183,no=184,missing=183
								183:[f1397<-13061558] yes=275,no=276,missing=275
									275:leaf=-0.149326622
									276:leaf=-0.0326501019
								184:leaf=0.0312609076
							116:[f1145<-13159863] yes=185,no=186,missing=185
								185:leaf=0.0444790237
								186:leaf=0.237097636
						68:[f1342<-13454778] yes=117,no=118,missing=117
							117:leaf=0.412558705
							118:leaf=0.0317565948
					36:[f1597<-12438962] yes=69,no=70,missing=69
						69:[f1207<-13454778] yes=119,no=120,missing=119
							119:[f1047<-13356473] yes=187,no=188,missing=187
								187:[f197<-13389242] yes=277,no=278,missing=277
									277:leaf=0.51687336
									278:leaf=0.0753319189
								188:leaf=0.0387694389
							120:leaf=0.0320343822
						70:[f1502<-12176816] yes=121,no=122,missing=121
							121:[f1542<-12438962] yes=189,no=190,missing=189
								189:[f1447<-12373298] yes=279,no=280,missing=279
									279:[f991<-13389242] yes=365,no=366,missing=365
										365:leaf=0.426971108
										366:leaf=0.010899514
									280:leaf=0.0655994117
								190:[f1456<-13323704] yes=281,no=282,missing=281
									281:leaf=0.123463683
									282:leaf=0.025802305
							122:[f1597<-11652268] yes=191,no=192,missing=191
								191:[f1225<-13290936] yes=283,no=284,missing=283
									283:leaf=0.0400388688
									284:leaf=-0.0950501934
								192:leaf=0.175298765
				18:[f1481<-12897717] yes=37,no=38,missing=37
					37:leaf=-0.126650631
					38:[f1391<-12930486] yes=71,no=72,missing=71
						71:leaf=0.0544314571
						72:leaf=0.183690429
		4:[f1570<-11193386] yes=9,no=10,missing=9
			9:[f1594<-12144048] yes=19,no=20,missing=19
				19:[f1542<-12766644] yes=39,no=40,missing=39
					39:[f1336<-13159863] yes=73,no=74,missing=73
						73:[f1284<-13028790] yes=123,no=124,missing=123
							123:[f1379<-12242352] yes=193,no=194,missing=193
								193:[f28<-12930486] yes=285,no=286,missing=285
									285:leaf=0.540810704
									286:leaf=0.137330964
								194:[f1191<-13454778] yes=287,no=288,missing=287
									287:leaf=0.230411783
									288:leaf=0.0380404852
							124:[f31<-13389242] yes=195,no=196,missing=195
								195:leaf=0.0301141012
								196:leaf=0.115542345
						74:[f1441<-7421983] yes=125,no=126,missing=125
							125:leaf=0.265644312
							126:leaf=0.0896729976
					40:[f1533<-13192632] yes=75,no=76,missing=75
						75:[f1591<-11980078] yes=127,no=128,missing=127
							127:[f84<-13225400] yes=197,no=198,missing=197
								197:leaf=0.441187382
								198:leaf=0.175725728
							128:[f751<-13159863] yes=199,no=200,missing=199
								199:leaf=0.0319632255
								200:leaf=0.18195796
						76:[f1342<-13454778] yes=129,no=130,missing=129
							129:[f1<-12930486] yes=201,no=202,missing=201
								201:[f90<-13192632] yes=289,no=290,missing=289
									289:leaf=0.0524605699
									290:leaf=0.00841321424
								202:leaf=-0.0489690043
							130:leaf=0.193248078
				20:[f1514<-13323705] yes=41,no=42,missing=41
					41:[f1576<-13323705] yes=77,no=78,missing=77
						77:[f1397<-12832181] yes=131,no=132,missing=131
							131:[f1505<-13356473] yes=203,no=204,missing=203
								203:leaf=0.155528724
								204:leaf=0.0455392115
							132:leaf=-0.0592232831
						78:[f1496<-12012974] yes=133,no=134,missing=133
							133:[f1539<-12570034] yes=205,no=206,missing=205
								205:[f1041<-11881519] yes=291,no=292,missing=291
									291:leaf=0.502613425
									292:leaf=0.110934608
								206:[f1416<-13192632] yes=293,no=294,missing=293
									293:leaf=0.0260296855
									294:leaf=0.189388394
							134:[f361<-13323704] yes=207,no=208,missing=207
								207:leaf=0.0421028212
								208:leaf=0.181654543
					42:[f1444<-12766644] yes=79,no=80,missing=79
						79:[f1514<-12340657] yes=135,no=136,missing=135
							135:leaf=-0.172580451
							136:[f1477<-12209584] yes=209,no=210,missing=209
								209:leaf=0.0462968238
								210:leaf=0.117727183
						80:[f1564<-11619500] yes=137,no=138,missing=137
							137:[f1302<-12242224] yes=211,no=212,missing=211
								211:leaf=0.316867948
								212:leaf=0.0629955828
							138:[f1434<-13290936] yes=213,no=214,missing=213
								213:[f1477<-13061558] yes=295,no=296,missing=295
									295:leaf=-0.0254460704
									296:leaf=0.03645017
								214:[f1327<-10832680] yes=297,no=298,missing=297
									297:leaf=0.239134625
									298:leaf=0.123210393
			10:[f90<-12668339] yes=21,no=22,missing=21
				21:[f1474<-13127095] yes=43,no=44,missing=43
					43:[f1588<-11816110] yes=81,no=82,missing=81
						81:[f1511<-12438962] yes=139,no=140,missing=139
							139:[f1521<-10144166] yes=215,no=216,missing=215
								215:[f1117<-13323704] yes=299,no=300,missing=299
									299:leaf=-0.0819501579
									300:leaf=-0.0197502151
								216:leaf=0.0384992324
							140:leaf=0.0902246237
						82:[f1588<-11291818] yes=141,no=142,missing=141
							141:[f81<-13290936] yes=217,no=218,missing=217
								217:leaf=0.389336884
								218:leaf=0.0977882296
							142:[f216<-13323704] yes=219,no=220,missing=219
								219:[f1441<-12799412] yes=301,no=302,missing=301
									301:leaf=-0.0533194393
									302:[f1484<-9258786] yes=367,no=368,missing=367
										367:leaf=0.126133651
										368:leaf=0.0534377471
								220:leaf=0.204355657
					44:[f1514<-11029416] yes=83,no=84,missing=83
						83:[f1250<-10144292] yes=143,no=144,missing=143
							143:[f1397<-13454778] yes=221,no=222,missing=221
								221:[f1241<-13389242] yes=303,no=304,missing=303
									303:[f1087<-12537266] yes=369,no=370,missing=369
										369:leaf=0.333414227
										370:leaf=0.0978750736
									304:[f441<-13389242] yes=371,no=372,missing=371
										371:leaf=0.025933018
										372:leaf=0.206331417
								222:leaf=0.388742715
							144:[f287<-12832181] yes=223,no=224,missing=223
								223:leaf=0.0319272913
								224:leaf=0.121339142
						84:[f1582<-4041768.5] yes=145,no=146,missing=145
							145:[f1481<-30176] yes=225,no=226,missing=225
								225:leaf=0.17338343
								226:leaf=0.0430038087
							146:leaf=0.0550973602
				22:[f1542<-1940406.5] yes=45,no=46,missing=45
					45:leaf=0.243421137
					46:leaf=0.438220114
	2:[f1517<-10701607] yes=5,no=6,missing=5
		5:[f1487<-12864948] yes=11,no=12,missing=11
			11:[f1404<-11816110] yes=23,no=24,missing=23
				23:[f1557<-12242352] yes=47,no=48,missing=47
					47:[f1262<-12799412] yes=85,no=86,missing=85
						85:leaf=-0.0511401668
						86:leaf=0.035528034
					48:[f1447<-13258168] yes=87,no=88,missing=87
						87:[f154<-13028790] yes=147,no=148,missing=147
							147:[f1373<-13389242] yes=227,no=228,missing=227
								227:[f1459<-8996512] yes=305,no=306,missing=305
									305:[f185<-13389242] yes=373,no=374,missing=373
										373:leaf=0.545597076
										374:leaf=0.217814922
									306:leaf=0.0221560299
								228:[f1379<-12897718] yes=307,no=308,missing=307
									307:[f1508<-11980206] yes=375,no=376,missing=375
										375:leaf=0.166759416
										376:leaf=0.0386096612
									308:[f1296<-12242224] yes=377,no=378,missing=377
										377:leaf=0.378960997
										378:leaf=0.120252848
							148:[f19<-13094327] yes=229,no=230,missing=229
								229:[f31<-13389242] yes=309,no=310,missing=309
									309:leaf=0.00951084495
									310:leaf=0.0510858707
								230:leaf=0.161027446
						88:[f1247<-13061558] yes=149,no=150,missing=149
							149:[f1561<-7389088] yes=231,no=232,missing=231
								231:[f1567<-13389242] yes=311,no=312,missing=311
									311:[f1441<-13389242] yes=379,no=380,missing=379
										379:leaf=0.0464610793
										380:leaf=0.190331414
									312:[f1339<-6043555.5] yes=381,no=382,missing=381
										381:leaf=0.35905242
										382:leaf=0.126336411
								232:leaf=0.0424398258
							150:[f277<-12406066] yes=233,no=234,missing=233
								233:leaf=0.0211394019
								234:leaf=0.0735376477
				24:[f1444<-12963254] yes=49,no=50,missing=49
					49:[f1530<-12733876] yes=89,no=90,missing=89
						89:[f1416<-11422891] yes=151,no=152,missing=151
							151:leaf=0.0523529053
							152:[f77<-13323704] yes=235,no=236,missing=235
								235:leaf=0.00176692312
								236:leaf=-0.00088436011
						90:[f219<-13454778] yes=153,no=154,missing=153
							153:leaf=0.173880607
							154:leaf=0.0143295145
					50:[f1493<-12242352] yes=91,no=92,missing=91
						91:[f1413<-13159863] yes=155,no=156,missing=155
							155:leaf=0.0191107765
							156:[f431<-7684256] yes=237,no=238,missing=237
								237:leaf=0.329527617
								238:leaf=0.0912003294
						92:[f1441<-11127849] yes=157,no=158,missing=157
							157:leaf=0.192285284
							158:[f324<-13389242] yes=239,no=240,missing=239
								239:[f1105<-13356473] yes=313,no=314,missing=313
									313:leaf=-0.00977284368
									314:leaf=0.0120202368
								240:leaf=0.0938862786
			12:[f96<-12668340] yes=25,no=26,missing=25
				25:[f1545<-11980206] yes=51,no=52,missing=51
					51:[f1511<-9422754] yes=93,no=94,missing=93
						93:[f1554<-9750818] yes=159,no=160,missing=159
							159:[f1505<-13454778] yes=241,no=242,missing=241
								241:[f1570<-10898216] yes=315,no=316,missing=315
									315:[f1576<-13061558] yes=383,no=384,missing=383
										383:leaf=0.0511605181
										384:leaf=0.215954676
									316:[f1382<-11750573] yes=385,no=386,missing=385
										385:leaf=0.407209426
										386:leaf=0.0863725543
								242:[f1570<-5486113.5] yes=317,no=318,missing=317
									317:[f1499<-13061558] yes=387,no=388,missing=387
										387:leaf=0.055719804
										388:leaf=0.206430212
									318:[f1244<-11816237] yes=389,no=390,missing=389
										389:leaf=0.0328671224
										390:leaf=0.00733087072
							160:[f1148<-13192632] yes=243,no=244,missing=243
								243:[f1117<-13225400] yes=319,no=320,missing=319
									319:leaf=-0.0305423979
									320:[f1<-12701108] yes=391,no=392,missing=391
										391:leaf=-0.00379929552
										392:leaf=0.0143295145
								244:leaf=0.115421213
						94:[f265<-11980079] yes=161,no=162,missing=161
							161:leaf=0.427618921
							162:leaf=0.0652260184
					52:[f44<-13389242] yes=95,no=96,missing=95
						95:[f1533<-10144164] yes=163,no=164,missing=163
							163:[f1047<-12733876] yes=245,no=246,missing=245
								245:[f1561<-7323551] yes=321,no=322,missing=321
									321:[f1161<-12209456] yes=393,no=394,missing=393
										393:leaf=0.174368307
										394:leaf=0.0488833599
									322:[f881<-12668212] yes=395,no=396,missing=395
										395:leaf=-0.0208677761
										396:leaf=0.0184476264
								246:[f1357<-11487918] yes=323,no=324,missing=323
									323:leaf=0.428010255
									324:leaf=0.135424688
							164:[f1521<-5289250.5] yes=247,no=248,missing=247
								247:[f1419<-12111280] yes=325,no=326,missing=325
									325:[f1573<-8307362] yes=397,no=398,missing=397
										397:leaf=-0.0245685149
										398:leaf=0.0257642474
									326:[f1579<-7618847] yes=399,no=400,missing=399
										399:leaf=0.153826907
										400:leaf=0.0603333525
								248:[f1496<-4140327] yes=327,no=328,missing=327
									327:[f1490<-1053757.5] yes=401,no=402,missing=401
										401:leaf=0.158546343
										402:leaf=-0.0074005546
									328:[f1416<-6306464] yes=403,no=404,missing=403
										403:leaf=0.0402497426
										404:leaf=0.117180005
						96:[f1136<-10012710] yes=165,no=166,missing=165
							165:leaf=0.284370959
							166:leaf=0.0380440243
				26:[f687<-12504370] yes=53,no=54,missing=53
					53:leaf=0.375048488
					54:leaf=0.235407084
		6:[f108<-9914788] yes=13,no=14,missing=13
			13:[f1268<-9914788] yes=27,no=28,missing=27
				27:[f62<-11816237] yes=55,no=56,missing=55
					55:[f1594<-3089709.5] yes=97,no=98,missing=97
						97:[f1557<-11816237] yes=167,no=168,missing=167
							167:[f1453<-12274992] yes=249,no=250,missing=249
								249:leaf=0.4829669
								250:[f241<-12996022] yes=329,no=330,missing=329
									329:leaf=0.167616561
									330:leaf=0.0468463562
							168:[f677<-9324450] yes=251,no=252,missing=251
								251:[f1521<-12340657] yes=331,no=332,missing=331
									331:[f1456<-12602803] yes=405,no=406,missing=405
										405:leaf=0.0350982323
										406:leaf=0.165147856
									332:[f1536<-13454778] yes=407,no=408,missing=407
										407:leaf=0.319063544
										408:leaf=0.151442647
								252:[f471<-6175136] yes=333,no=334,missing=333
									333:[f1117<-7061151] yes=409,no=410,missing=409
										409:leaf=0.291035354
										410:leaf=0.102212675
									334:[f13<-12602803] yes=411,no=412,missing=411
										411:leaf=0.136802033
										412:leaf=0.02543463
						98:[f471<-13159864] yes=169,no=170,missing=169
							169:[f1388<-6798623.5] yes=253,no=254,missing=253
								253:[f776<-13389242] yes=335,no=336,missing=335
									335:[f1108<-12176816] yes=413,no=414,missing=413
										413:leaf=0.0734113231
										414:leaf=0.16759035
									336:[f1382<-12078511] yes=415,no=416,missing=415
										415:leaf=-0.00933130737
										416:leaf=0.0429419875
								254:[f34<-13061558] yes=337,no=338,missing=337
									337:leaf=0.234311506
									338:leaf=0.041588854
							170:[f1274<-8996384] yes=255,no=256,missing=255
								255:[f1111<-9685154] yes=339,no=340,missing=339
									339:[f1271<-9980324] yes=417,no=418,missing=417
										417:leaf=0.212384567
										418:leaf=0.0383161977
									340:[f637<-11685036] yes=419,no=420,missing=419
										419:leaf=0.477651626
										420:leaf=0.162296355
								256:[f1548<-4895396] yes=341,no=342,missing=341
									341:[f1062<-9389986] yes=421,no=422,missing=421
										421:leaf=0.0426266715
										422:leaf=0.107782483
									342:leaf=0.170837075
					56:[f1222<-5518882] yes=99,no=100,missing=99
						99:[f1524<-13159863] yes=171,no=172,missing=171
							171:[f145<-11849006] yes=257,no=258,missing=257
								257:leaf=0.0390062258
								258:leaf=0.167536542
							172:[f677<-10144164] yes=259,no=260,missing=259
								259:leaf=0.368513107
								260:leaf=0.241021201
						100:leaf=0.0463673584
				28:[f511<-10537638] yes=57,no=58,missing=57
					57:[f1441<-26991.5] yes=101,no=102,missing=101
						101:[f1591<-11094953] yes=173,no=174,missing=173
							173:[f1287<-330567] yes=261,no=262,missing=261
								261:[f1517<-27883.5] yes=343,no=344,missing=343
									343:leaf=0.145683751
									344:leaf=0.310676992
								262:[f47<-13389242] yes=345,no=346,missing=345
									345:leaf=-0.00157241826
									346:leaf=0.00109751523
							174:[f1508<-8012447] yes=263,no=264,missing=263
								263:[f1271<-9062049] yes=347,no=348,missing=347
									347:[f730<-13225400] yes=423,no=424,missing=423
										423:leaf=0.0103064971
										424:leaf=0.0934220776
									348:[f1231<-7192224.5] yes=425,no=426,missing=425
										425:leaf=0.135785356
										426:leaf=0.296016604
								264:[f1444<-13192632] yes=349,no=350,missing=349
									349:[f1277<-11127849] yes=427,no=428,missing=427
										427:leaf=-4.16627518e-05
										428:leaf=0.0440052971
									350:[f1142<-12340657] yes=429,no=430,missing=429
										429:leaf=0.0897741318
										430:leaf=0.0508432463
						102:leaf=0.274938434
					58:[f1597<-31450] yes=103,no=104,missing=103
						103:[f1517<-3713577] yes=175,no=176,missing=175
							175:[f1348<-659521.5] yes=265,no=266,missing=265
								265:[f1450<-9521186] yes=351,no=352,missing=351
									351:[f1228<-2071733.5] yes=431,no=432,missing=431
										431:leaf=0.305556774
										432:leaf=0.0699011609
									352:[f1493<-2067275] yes=433,no=434,missing=433
										433:leaf=0.159449264
										434:leaf=0.0295599643
								266:[f271<-11783469] yes=353,no=354,missing=353
									353:[f34<-11914288] yes=435,no=436,missing=435
										435:leaf=-0.00387659087
										436:leaf=0.00484737754
									354:leaf=0.0376198702
							176:[f665<-8012575] yes=267,no=268,missing=267
								267:[f1157<-10996648] yes=355,no=356,missing=355
									355:[f71<-12733876] yes=437,no=438,missing=437
										437:leaf=0.00842473842
										438:leaf=-0.0208072197
									356:[f357<-5945504.5] yes=439,no=440,missing=439
										439:leaf=0.0608897097
										440:leaf=0.00707063405
								268:[f13<-12209584] yes=357,no=358,missing=357
									357:leaf=0.16816707
									358:leaf=0.0283586327
						104:[f733<-8471712] yes=177,no=178,missing=177
							177:[f625<-9357218] yes=269,no=270,missing=269
								269:leaf=0.456603408
								270:[f22<-12832181] yes=359,no=360,missing=359
									359:leaf=0.117151819
									360:leaf=0.0250364821
							178:[f308<-13356473] yes=271,no=272,missing=271
								271:[f22<-13356473] yes=361,no=362,missing=361
									361:leaf=-0.0166402292
									362:leaf=0.00634529022
								272:leaf=0.137595952
			14:[f1388<-2958382] yes=29,no=30,missing=29
				29:[f1145<-5354786.5] yes=59,no=60,missing=59
					59:[f1154<-5748641] yes=105,no=106,missing=105
						105:[f1508<-8668576] yes=179,no=180,missing=179
							179:leaf=0.385958761
							180:leaf=0.259269655
						106:leaf=0.0250858795
					60:[f34<-11947056] yes=107,no=108,missing=107
						107:leaf=0.0250007343
						108:leaf=0.123924561
				30:[f77<-11685164] yes=61,no=62,missing=61
					61:[f28<-12701108] yes=109,no=110,missing=109
						109:leaf=-0.0125633786
						110:leaf=0.0492191054
					62:leaf=0.18582359
booster[4]:
0:[f1557<-10963880] yes=1,no=2,missing=1
	1:[f1490<-11652268] yes=3,no=4,missing=3
		3:[f1554<-11881774] yes=7,no=8,missing=7
			7:[f1594<-11291818] yes=15,no=16,missing=15
				15:[f1361<-11553964] yes=31,no=32,missing=31
					31:[f1450<-10439334] yes=61,no=62,missing=61
						61:[f1505<-11750572] yes=113,no=114,missing=113
							113:[f1487<-11390122] yes=201,no=202,missing=201
								201:[f1551<-12242352] yes=307,no=308,missing=307
									307:[f1536<-12406194] yes=417,no=418,missing=417
										417:leaf=0.317857057
										418:leaf=0.182105929
									308:[f1428<-10963880] yes=419,no=420,missing=419
										419:leaf=0.439362258
										420:leaf=0.137912646
								202:[f1477<-12504370] yes=309,no=310,missing=309
									309:[f1579<-10865576] yes=421,no=422,missing=421
										421:leaf=0.304281175
										422:leaf=0.0752118826
									310:[f1471<-10636070] yes=423,no=424,missing=423
										423:leaf=0.0559757091
										424:leaf=-0.0387404338
							114:[f1557<-12864948] yes=203,no=204,missing=203
								203:[f1462<-11685037] yes=311,no=312,missing=311
									311:[f1274<-11553582] yes=425,no=426,missing=425
										425:leaf=0.324473441
										426:leaf=0.0457003713
									312:leaf=0.127399474
								204:[f1459<-11553964] yes=313,no=314,missing=313
									313:[f1401<-13225400] yes=427,no=428,missing=427
										427:leaf=0.0631299689
										428:leaf=0.134594277
									314:[f1099<-13356473] yes=429,no=430,missing=429
										429:leaf=-0.0426992662
										430:leaf=0.0146916928
						62:[f1484<-12340657] yes=115,no=116,missing=115
							115:[f81<-13094327] yes=205,no=206,missing=205
								205:leaf=0.2585769
								206:leaf=0.0679980814
							116:[f1431<-12537266] yes=207,no=208,missing=207
								207:[f1271<-12897718] yes=315,no=316,missing=315
									315:[f259<-13323704] yes=431,no=432,missing=431
										431:leaf=0.032098677
										432:leaf=0.00864202436
									316:leaf=-0.0222066343
								208:leaf=0.1274174
					32:[f1536<-13389242] yes=63,no=64,missing=63
						63:[f1437<-13323704] yes=117,no=118,missing=117
							117:[f321<-13094327] yes=209,no=210,missing=209
								209:leaf=-0.0503397919
								210:leaf=0.00374422083
							118:[f1170<-13356473] yes=211,no=212,missing=211
								211:leaf=0.114465982
								212:leaf=0.0389752313
						64:[f1588<-12373425] yes=119,no=120,missing=119
							119:leaf=0.262574732
							120:[f1410<-13389242] yes=213,no=214,missing=213
								213:leaf=0.0354821049
								214:leaf=0.155741915
				16:[f1594<-11094953] yes=33,no=34,missing=33
					33:[f1561<-13356473] yes=65,no=66,missing=65
						65:[f1382<-13356473] yes=121,no=122,missing=121
							121:leaf=-0.062590532
							122:leaf=0.0397690088
						66:[f1407<-12602802] yes=123,no=124,missing=123
							123:leaf=0.132617742
							124:leaf=0.0248226225
					34:[f1219<-13356473] yes=67,no=68,missing=67
						67:[f1228<-13454778] yes=125,no=126,missing=125
							125:[f1370<-12996022] yes=215,no=216,missing=215
								215:[f1524<-12406194] yes=317,no=318,missing=317
									317:[f1028<-12701108] yes=433,no=434,missing=433
										433:leaf=0.314688146
										434:leaf=0.0258648582
									318:[f1401<-11357226] yes=435,no=436,missing=435
										435:leaf=0.0832766891
										436:leaf=0.256063521
								216:[f44<-12897718] yes=319,no=320,missing=319
									319:[f1013<-13454778] yes=437,no=438,missing=437
										437:leaf=0.0502098501
										438:leaf=-0.0289506037
									320:leaf=0.190140143
							126:[f1041<-13225400] yes=217,no=218,missing=217
								217:leaf=-0.0807926655
								218:leaf=0.0579671524
						68:[f379<-13192632] yes=127,no=128,missing=127
							127:leaf=-0.152255207
							128:leaf=0.0961963758
			8:[f1493<-13389242] yes=17,no=18,missing=17
				17:[f1573<-13028790] yes=35,no=36,missing=35
					35:[f1373<-13061558] yes=69,no=70,missing=69
						69:[f514<-13323704] yes=129,no=130,missing=129
							129:[f1059<-12242097] yes=219,no=220,missing=219
								219:leaf=0.392144531
								220:leaf=0.0182723887
							130:leaf=0.111645058
						70:[f324<-12635444] yes=131,no=132,missing=131
							131:leaf=-0.0190980081
							132:leaf=0.0126756104
					36:[f1450<-13028790] yes=71,no=72,missing=71
						71:[f1361<-12799412] yes=133,no=134,missing=133
							133:[f1274<-13061558] yes=221,no=222,missing=221
								221:[f1425<-12930486] yes=321,no=322,missing=321
									321:leaf=0.0331039131
									322:leaf=0.072454311
								222:leaf=0.170580402
							134:leaf=-0.0822755992
						72:[f1533<-13258168] yes=135,no=136,missing=135
							135:leaf=0.336031258
							136:[f1573<-12111280] yes=223,no=224,missing=223
								223:leaf=0.0232122596
								224:leaf=0.171177715
				18:[f1576<-10504870] yes=37,no=38,missing=37
					37:[f1536<-13356474] yes=73,no=74,missing=73
						73:[f1597<-12930486] yes=137,no=138,missing=137
							137:leaf=0.161002815
							138:[f1557<-11685164] yes=225,no=226,missing=225
								225:leaf=0.0534708276
								226:[f1133<-12766644] yes=323,no=324,missing=323
									323:leaf=-0.00984608568
									324:leaf=0.0115400441
						74:[f1527<-9553954] yes=139,no=140,missing=139
							139:[f1579<-9553954] yes=227,no=228,missing=227
								227:[f1317<-12668340] yes=325,no=326,missing=325
									325:[f1259<-11914542] yes=439,no=440,missing=439
										439:leaf=0.220273688
										440:leaf=0.0573482066
									326:leaf=0.0904511362
								228:leaf=0.032918904
							140:[f862<-12996022] yes=229,no=230,missing=229
								229:leaf=0.0277548023
								230:leaf=0.100292563
					38:[f1557<-11816110] yes=75,no=76,missing=75
						75:[f1379<-13061558] yes=141,no=142,missing=141
							141:leaf=0.0430976376
							142:leaf=0.104810208
						76:[f302<-12963254] yes=143,no=144,missing=143
							143:[f1016<-12701108] yes=231,no=232,missing=231
								231:[f841<-12897718] yes=327,no=328,missing=327
									327:leaf=0.000809499645
									328:leaf=-0.00889880676
								232:leaf=-0.0512208603
							144:[f4<-12766644] yes=233,no=234,missing=233
								233:leaf=0.0616219305
								234:leaf=0.0124547491
		4:[f1514<-13028790] yes=9,no=10,missing=9
			9:[f1570<-13159864] yes=19,no=20,missing=19
				19:[f1361<-11553964] yes=39,no=40,missing=39
					39:[f1385<-12897717] yes=77,no=78,missing=77
						77:leaf=0.389436841
						78:[f117<-12897718] yes=145,no=146,missing=145
							145:leaf=0.0190414581
							146:leaf=0.123570949
					40:[f121<-12274866] yes=79,no=80,missing=79
						79:leaf=0.163118675
						80:leaf=0.00715123443
				20:[f1330<-12864948] yes=41,no=42,missing=41
					41:[f1413<-11783341] yes=81,no=82,missing=81
						81:[f1145<-12897718] yes=147,no=148,missing=147
							147:[f1582<-12340657] yes=235,no=236,missing=235
								235:[f1413<-13290936] yes=329,no=330,missing=329
									329:leaf=0.11603561
									330:leaf=0.0193295106
								236:[f1594<-13356473] yes=331,no=332,missing=331
									331:[f967<-13258168] yes=441,no=442,missing=441
										441:leaf=-0.0550756492
										442:leaf=0.00168584893
									332:[f859<-13323704] yes=443,no=444,missing=443
										443:leaf=0.0421878248
										444:leaf=-0.0112457164
							148:leaf=0.187647
						82:[f1241<-10209829] yes=149,no=150,missing=149
							149:[f1074<-12930486] yes=237,no=238,missing=237
								237:leaf=0.202444315
								238:leaf=0.0234102309
							150:leaf=0.0376456305
					42:[f1321<-12012974] yes=83,no=84,missing=83
						83:[f1545<-12045615] yes=151,no=152,missing=151
							151:[f164<-12930486] yes=239,no=240,missing=239
								239:leaf=0.0270009134
								240:leaf=0.101266772
							152:leaf=0.364171982
						84:[f764<-13454778] yes=153,no=154,missing=153
							153:[f290<-12504370] yes=241,no=242,missing=241
								241:leaf=0.103328787
								242:leaf=0.0262459032
							154:leaf=0.179653272
			10:[f496<-13258168] yes=21,no=22,missing=21
				21:[f1579<-6503328] yes=43,no=44,missing=43
					43:[f1570<-11881774] yes=85,no=86,missing=85
						85:[f1521<-12143920] yes=155,no=156,missing=155
							155:[f1117<-13290936] yes=243,no=244,missing=243
								243:[f1508<-12242352] yes=333,no=334,missing=333
									333:leaf=0.106384516
									334:leaf=0.248747498
								244:[f25<-12897718] yes=335,no=336,missing=335
									335:leaf=0.0643539429
									336:leaf=0.00601003505
							156:[f1447<-13356473] yes=245,no=246,missing=245
								245:[f841<-12537139] yes=337,no=338,missing=337
									337:leaf=0.0146084195
									338:leaf=0.041649472
								246:[f1401<-11193258] yes=339,no=340,missing=339
									339:leaf=0.137433305
									340:leaf=0.0620312169
						86:[f724<-13454778] yes=157,no=158,missing=157
							157:[f1508<-12012974] yes=247,no=248,missing=247
								247:[f1379<-12733876] yes=341,no=342,missing=341
									341:[f1262<-13094327] yes=445,no=446,missing=445
										445:leaf=0.0605179518
										446:leaf=0.00825355947
									342:[f1117<-13356473] yes=447,no=448,missing=447
										447:leaf=0.0069982172
										448:leaf=-0.00165542366
								248:[f1204<-13094327] yes=343,no=344,missing=343
									343:[f1474<-11979950] yes=449,no=450,missing=449
										449:leaf=0.159742609
										450:leaf=0.0997321159
									344:[f1413<-13127095] yes=451,no=452,missing=451
										451:leaf=0.00250551407
										452:leaf=0.0822204351
							158:[f1093<-8242079.5] yes=249,no=250,missing=249
								249:leaf=0.143615752
								250:leaf=0.0727489889
					44:[f1484<-9226018] yes=87,no=88,missing=87
						87:[f7<-13323704] yes=159,no=160,missing=159
							159:leaf=0.13406153
							160:leaf=0.0178976208
						88:[f1496<-10701607] yes=161,no=162,missing=161
							161:leaf=-0.0692726076
							162:[f1582<-5453218] yes=251,no=252,missing=251
								251:[f142<-12897718] yes=345,no=346,missing=345
									345:leaf=0.122793846
									346:leaf=0.0270418711
								252:[f1016<-10668838] yes=347,no=348,missing=347
									347:[f908<-9094817] yes=453,no=454,missing=453
										453:leaf=0.0375794321
										454:leaf=0.00300307292
									348:[f84<-13356473] yes=455,no=456,missing=455
										455:leaf=-0.0275768396
										456:leaf=0.0156808645
				22:[f1511<-31577.5] yes=45,no=46,missing=45
					45:[f1481<-396740] yes=89,no=90,missing=89
						89:[f1542<-1743416] yes=163,no=164,missing=163
							163:[f1167<-6732959.5] yes=253,no=254,missing=253
								253:[f1290<-2991277.5] yes=349,no=350,missing=349
									349:[f265<-33616] yes=457,no=458,missing=457
										457:leaf=0.18828021
										458:leaf=0.0499009639
									350:leaf=0.0916194916
								254:[f81<-13094327] yes=351,no=352,missing=351
									351:leaf=0.0670678541
									352:leaf=0.0145723885
							164:[f173<-11586478] yes=255,no=256,missing=255
								255:leaf=0.337139368
								256:leaf=0.0685140267
						90:[f50<-12930486] yes=165,no=166,missing=165
							165:[f127<-13225400] yes=257,no=258,missing=257
								257:leaf=-0.00311059365
								258:leaf=0.0206646156
							166:leaf=0.0746247321
					46:[f268<-11750572] yes=91,no=92,missing=91
						91:[f13<-12799412] yes=167,no=168,missing=167
							167:leaf=-0.000741040742
							168:leaf=0.00241620559
						92:leaf=0.0581038147
	2:[f108<-9455522] yes=5,no=6,missing=5
		5:[f1277<-10963880] yes=11,no=12,missing=11
			11:[f1508<-12930486] yes=23,no=24,missing=23
				23:[f1431<-13192632] yes=47,no=48,missing=47
					47:[f1471<-11291690] yes=93,no=94,missing=93
						93:[f1416<-13389242] yes=169,no=170,missing=169
							169:[f1471<-12111152] yes=259,no=260,missing=259
								259:[f1419<-13356473] yes=353,no=354,missing=353
									353:[f1481<-12176816] yes=459,no=460,missing=459
										459:leaf=0.422867
										460:leaf=0.156326681
									354:[f241<-12832180] yes=461,no=462,missing=461
										461:leaf=0.192296714
										462:leaf=0.0137536982
								260:leaf=-0.0498428829
							170:[f1582<-12209584] yes=261,no=262,missing=261
								261:[f114<-13061558] yes=355,no=356,missing=355
									355:leaf=-0.0540717766
									356:leaf=-0.00322939758
								262:leaf=0.142053187
						94:[f785<-13290936] yes=171,no=172,missing=171
							171:leaf=0.566135108
							172:leaf=0.0627950951
					48:[f416<-11291690] yes=95,no=96,missing=95
						95:[f1499<-13192632] yes=173,no=174,missing=173
							173:[f1299<-13389242] yes=263,no=264,missing=263
								263:[f77<-13323704] yes=357,no=358,missing=357
									357:leaf=-0.0513593033
									358:leaf=-0.00075169804
								264:[f216<-12242097] yes=359,no=360,missing=359
									359:leaf=0.0162401199
									360:leaf=0.0750629157
							174:[f1222<-9586596] yes=265,no=266,missing=265
								265:[f1431<-12996022] yes=361,no=362,missing=361
									361:leaf=0.0100541357
									362:leaf=0.134034917
								266:[f247<-12471602] yes=363,no=364,missing=363
									363:leaf=0.0358730555
									364:leaf=0.00799897313
						96:[f401<-11914288] yes=175,no=176,missing=175
							175:leaf=0.308290124
							176:leaf=0.117016807
				24:[f508<-13258168] yes=49,no=50,missing=49
					49:[f1588<-3155500.5] yes=97,no=98,missing=97
						97:[f810<-10144164] yes=177,no=178,missing=177
							177:[f81<-13028790] yes=267,no=268,missing=267
								267:[f1594<-9062049] yes=365,no=366,missing=365
									365:[f1551<-12242352] yes=463,no=464,missing=463
										463:leaf=0.189623743
										464:leaf=0.1013209
									366:[f1499<-13323705] yes=465,no=466,missing=465
										465:leaf=-0.0175187457
										466:leaf=0.09511666
								268:[f1404<-5551650.5] yes=367,no=368,missing=367
									367:leaf=-0.111160152
									368:[f4<-13290936] yes=467,no=468,missing=467
										467:leaf=0.0046729669
										468:leaf=0.102808505
							178:[f1296<-8078111.5] yes=269,no=270,missing=269
								269:[f1561<-5650209.5] yes=369,no=370,missing=369
									369:[f81<-11422762] yes=469,no=470,missing=469
										469:leaf=0.154490948
										470:leaf=0.00483587105
									370:[f191<-12963254] yes=471,no=472,missing=471
										471:leaf=0.361392498
										472:leaf=0.111792691
								270:[f44<-12996022] yes=371,no=372,missing=371
									371:leaf=0.107174613
									372:[f1<-13389242] yes=473,no=474,missing=473
										473:leaf=0.0166568886
										474:leaf=-0.0399673283
						98:[f317<-10636070] yes=179,no=180,missing=179
							179:[f1256<-11390122] yes=271,no=272,missing=271
								271:[f1161<-10767271] yes=373,no=374,missing=373
									373:[f1148<-10701606] yes=475,no=476,missing=475
										475:leaf=0.122427046
										476:leaf=0.0123341167
									374:[f847<-10636071] yes=477,no=478,missing=477
										477:leaf=-0.0166618712
										478:leaf=0.0284889843
								272:[f997<-10603174] yes=375,no=376,missing=375
									375:[f1437<-6240800.5] yes=479,no=480,missing=479
										479:leaf=-0.00304548792
										480:leaf=0.110197283
									376:[f179<-12996022] yes=481,no=482,missing=481
										481:leaf=0.119562969
										482:leaf=0.0214944128
							180:[f157<-13192632] yes=273,no=274,missing=273
								273:leaf=0.30987823
								274:leaf=0.105460219
					50:[f1308<-5420450] yes=99,no=100,missing=99
						99:[f1105<-6240928] yes=181,no=182,missing=181
							181:[f71<-13159864] yes=275,no=276,missing=275
								275:[f1274<-10603174] yes=377,no=378,missing=377
									377:[f4<-13356473] yes=483,no=484,missing=483
										483:leaf=0.126232117
										484:leaf=0.255010575
									378:[f911<-12471730] yes=485,no=486,missing=485
										485:leaf=0.102404229
										486:leaf=0.0308765322
								276:[f677<-12144048] yes=379,no=380,missing=379
									379:leaf=0.328116
									380:leaf=0.177486986
							182:[f554<-8045215.5] yes=277,no=278,missing=277
								277:leaf=0.402520806
								278:[f22<-10406438] yes=381,no=382,missing=381
									381:leaf=0.1080314
									382:leaf=-0.0103015425
						100:[f434<-8930848] yes=183,no=184,missing=183
							183:[f1031<-13356473] yes=279,no=280,missing=279
								279:leaf=0.090767473
								280:[f982<-11258922] yes=383,no=384,missing=383
									383:[f228<-11980078] yes=487,no=488,missing=487
										487:leaf=0.00242517446
										488:leaf=-0.0274560675
									384:leaf=0.0333320685
							184:[f65<-10701607] yes=281,no=282,missing=281
								281:leaf=0.121188447
								282:[f7<-12668212] yes=385,no=386,missing=385
									385:leaf=0.00690270076
									386:leaf=0.0312628299
			12:[f477<-9914788] yes=25,no=26,missing=25
				25:[f1597<-8012575] yes=51,no=52,missing=51
					51:[f1314<-5945505] yes=101,no=102,missing=101
						101:[f277<-10767143] yes=185,no=186,missing=185
							185:[f1548<-12340657] yes=283,no=284,missing=283
								283:[f637<-13454778] yes=387,no=388,missing=387
									387:leaf=-0.0664571822
									388:[f161<-12373298] yes=489,no=490,missing=489
										489:leaf=-0.00307705416
										490:leaf=0.0583977737
								284:[f1579<-5879968.5] yes=389,no=390,missing=389
									389:[f74<-13094327] yes=491,no=492,missing=491
										491:leaf=0.11260958
										492:leaf=0.204557851
									390:[f634<-13094327] yes=493,no=494,missing=493
										493:leaf=-0.00644251006
										494:leaf=0.0470243394
							186:leaf=0.221612737
						102:[f1136<-13290936] yes=187,no=188,missing=187
							187:[f151<-12635444] yes=285,no=286,missing=285
								285:leaf=-0.028088415
								286:[f25<-12799412] yes=391,no=392,missing=391
									391:leaf=0.00492823729
									392:leaf=-0.00411123643
							188:[f114<-13192632] yes=287,no=288,missing=287
								287:leaf=0.0696981475
								288:leaf=0.0264971722
					52:[f431<-13028790] yes=103,no=104,missing=103
						103:[f114<-9980324] yes=189,no=190,missing=189
							189:[f1585<-25845] yes=289,no=290,missing=289
								289:[f797<-9980324] yes=393,no=394,missing=393
									393:[f1274<-13290936] yes=495,no=496,missing=495
										495:leaf=-0.0128847798
										496:leaf=0.0338948965
									394:[f1157<-11193386] yes=497,no=498,missing=497
										497:leaf=0.114308521
										498:leaf=0.0293504242
								290:[f1145<-11881774] yes=395,no=396,missing=395
									395:leaf=0.134989798
									396:[f194<-13290936] yes=499,no=500,missing=499
										499:leaf=0.0365468077
										500:leaf=-0.00571666379
							190:leaf=-0.0977317244
						104:[f1271<-13454778] yes=191,no=192,missing=191
							191:[f281<-13159864] yes=291,no=292,missing=291
								291:[f4<-12143792] yes=397,no=398,missing=397
									397:leaf=0.12050496
									398:leaf=-0.00401124358
								292:leaf=0.277270168
							192:[f957<-12570034] yes=293,no=294,missing=293
								293:[f1573<-11717932] yes=399,no=400,missing=399
									399:leaf=0.293783218
									400:[f1179<-13225400] yes=501,no=502,missing=501
										501:leaf=0.116974473
										502:leaf=0.0429981649
								294:[f902<-6142368] yes=401,no=402,missing=401
									401:[f271<-8012575] yes=503,no=504,missing=503
										503:leaf=0.0386315882
										504:leaf=-0.0270456448
									402:[f665<-6503328] yes=505,no=506,missing=505
										505:leaf=0.12024904
										506:leaf=0.0341788791
				26:[f1514<-33998.5] yes=53,no=54,missing=53
					53:[f416<-13356473] yes=105,no=106,missing=105
						105:[f1597<-4501413.5] yes=193,no=194,missing=193
							193:[f1197<-5289250.5] yes=295,no=296,missing=295
								295:[f1117<-5978146] yes=403,no=404,missing=403
									403:leaf=0.146419585
									404:leaf=0.0281229913
								296:[f37<-13061558] yes=405,no=406,missing=405
									405:leaf=-0.00548844365
									406:leaf=0.00351748476
							194:[f37<-13192632] yes=297,no=298,missing=297
								297:[f1194<-13225400] yes=407,no=408,missing=407
									407:[f117<-13454778] yes=507,no=508,missing=507
										507:leaf=0.0173818953
										508:leaf=0.0817421675
									408:[f197<-10930858] yes=509,no=510,missing=509
										509:leaf=0.380026013
										510:leaf=0.0841210335
								298:[f37<-12078511] yes=409,no=410,missing=409
									409:[f34<-13061558] yes=511,no=512,missing=511
										511:leaf=-4.16100047e-05
										512:leaf=0.027953295
									410:leaf=0.154156864
						106:[f991<-12996022] yes=195,no=196,missing=195
							195:[f1453<-4698404.5] yes=299,no=300,missing=299
								299:[f1<-10078628] yes=411,no=412,missing=411
									411:[f1339<-9816228] yes=513,no=514,missing=513
										513:leaf=0.0485599935
										514:leaf=0.0121073788
									412:leaf=-0.0409139171
								300:leaf=0.108507
							196:[f1244<-5584546] yes=301,no=302,missing=301
								301:[f988<-12930486] yes=413,no=414,missing=413
									413:[f705<-10570534] yes=515,no=516,missing=515
										515:leaf=0.208888859
										516:leaf=0.116464406
									414:[f899<-12111152] yes=517,no=518,missing=517
										517:leaf=0.0453235283
										518:leaf=0.115482427
								302:[f16<-9685154] yes=415,no=416,missing=415
									415:leaf=0.0438358262
									416:leaf=0.00339349522
					54:[f1591<-7356447] yes=107,no=108,missing=107
						107:[f397<-8930848] yes=197,no=198,missing=197
							197:leaf=0.0320644639
							198:leaf=0.116651617
						108:[f837<-9455522] yes=199,no=200,missing=199
							199:[f1<-13389242] yes=303,no=304,missing=303
								303:leaf=-0.0029677751
								304:leaf=-0.0294263903
							200:[f874<-8406048] yes=305,no=306,missing=305
								305:leaf=0.0119987018
								306:leaf=0.0374932811
		6:[f1185<-6273696] yes=13,no=14,missing=13
			13:[f708<-13454778] yes=27,no=28,missing=27
				27:[f93<-12373298] yes=55,no=56,missing=55
					55:leaf=0.355292976
					56:leaf=0.153299019
				28:[f1268<-4665509] yes=57,no=58,missing=57
					57:leaf=0.183246344
					58:[f4<-6761409] yes=109,no=110,missing=109
						109:leaf=0.0266859848
						110:leaf=0.0899081528
			14:[f22<-9881892] yes=29,no=30,missing=29
				29:[f41<-10570407] yes=59,no=60,missing=59
					59:leaf=0.0389647298
					60:[f1<-11619500] yes=111,no=112,missing=111
						111:leaf=0.00836092886
						112:leaf=0.00202819705
				30:leaf=0.11987754
booster[5]:
0:[f1557<-10963880] yes=1,no=2,missing=1
	1:[f1561<-11390122] yes=3,no=4,missing=3
		3:[f1582<-11291818] yes=7,no=8,missing=7
			7:[f1490<-11881774] yes=15,no=16,missing=15
				15:[f665<-13389242] yes=31,no=32,missing=31
					31:[f1474<-12438962] yes=61,no=62,missing=61
						61:[f1542<-12570034] yes=119,no=120,missing=119
							119:[f1397<-11390122] yes=211,no=212,missing=211
								211:[f1441<-10996648] yes=325,no=326,missing=325
									325:[f1511<-10144164] yes=429,no=430,missing=429
										429:leaf=0.238038495
										430:leaf=0.0289989728
									326:[f1404<-13061558] yes=431,no=432,missing=431
										431:leaf=-0.0508633889
										432:leaf=0.19551146
								212:[f1401<-13159863] yes=327,no=328,missing=327
									327:leaf=-0.0720703304
									328:[f317<-11619118] yes=433,no=434,missing=433
										433:leaf=0.00524042873
										434:leaf=0.0400408059
							120:[f1410<-13094327] yes=213,no=214,missing=213
								213:[f1477<-12996022] yes=329,no=330,missing=329
									329:[f1404<-13159864] yes=435,no=436,missing=435
										435:leaf=-0.0580755509
										436:leaf=0.126454532
									330:[f1401<-13389242] yes=437,no=438,missing=437
										437:leaf=0.25177905
										438:leaf=0.0511420295
								214:leaf=0.277977228
						62:[f797<-12930486] yes=121,no=122,missing=121
							121:[f1597<-9258786] yes=215,no=216,missing=215
								215:[f28<-12373298] yes=331,no=332,missing=331
									331:[f1274<-9652386] yes=439,no=440,missing=439
										439:leaf=0.315262467
										440:leaf=0.0388453268
									332:leaf=0.019710267
								216:[f34<-13159863] yes=333,no=334,missing=333
									333:leaf=0.0138670392
									334:leaf=0.0843449607
							122:[f1117<-12996022] yes=217,no=218,missing=217
								217:leaf=0.134711966
								218:leaf=-0.01177919
					32:[f899<-11980078] yes=63,no=64,missing=63
						63:leaf=0.131021261
						64:leaf=0.0355062373
				16:[f1570<-12275120] yes=33,no=34,missing=33
					33:[f1557<-13323704] yes=65,no=66,missing=65
						65:[f1582<-11947310] yes=123,no=124,missing=123
							123:leaf=0.258520097
							124:leaf=0.104258925
						66:[f1557<-12340657] yes=125,no=126,missing=125
							125:[f1471<-13389242] yes=219,no=220,missing=219
								219:leaf=0.0216711368
								220:leaf=0.0689742044
							126:leaf=0.131689712
					34:[f1490<-11422891] yes=67,no=68,missing=67
						67:[f1157<-13323704] yes=127,no=128,missing=127
							127:leaf=-0.0333778858
							128:leaf=-0.0993547812
						68:[f1487<-9685154] yes=129,no=130,missing=129
							129:[f1573<-10603174] yes=221,no=222,missing=221
								221:leaf=0.141312078
								222:leaf=0.0493091866
							130:[f324<-13454778] yes=223,no=224,missing=223
								223:[f517<-13159863] yes=335,no=336,missing=335
									335:leaf=0.0296918545
									336:leaf=0.00423969654
								224:leaf=0.079585135
			8:[f1441<-12864948] yes=17,no=18,missing=17
				17:[f1557<-12340657] yes=35,no=36,missing=35
					35:[f1477<-11750701] yes=69,no=70,missing=69
						69:[f1474<-11357354] yes=131,no=132,missing=131
							131:[f1317<-13225400] yes=225,no=226,missing=225
								225:[f1561<-12078511] yes=337,no=338,missing=337
									337:[f1582<-10963880] yes=441,no=442,missing=441
										441:leaf=0.119977348
										442:leaf=0.323034853
									338:[f1450<-12340657] yes=443,no=444,missing=443
										443:leaf=0.133702189
										444:leaf=-0.04254191
								226:[f979<-13389242] yes=339,no=340,missing=339
									339:leaf=0.0460938215
									340:leaf=-0.0246080179
							132:[f1407<-12537139] yes=227,no=228,missing=227
								227:leaf=-0.0699342564
								228:[f191<-13225400] yes=341,no=342,missing=341
									341:leaf=0.0938187242
									342:leaf=0.0144303925
						70:[f1474<-13290936] yes=133,no=134,missing=133
							133:leaf=-0.0754311606
							134:[f1431<-11520941] yes=229,no=230,missing=229
								229:leaf=0.0403260291
								230:leaf=0.0827893615
					36:[f625<-12012846] yes=71,no=72,missing=71
						71:[f1548<-13225400] yes=135,no=136,missing=135
							135:[f1474<-13225400] yes=231,no=232,missing=231
								231:[f1394<-12930486] yes=343,no=344,missing=343
									343:leaf=-0.00836917199
									344:leaf=0.000688076019
								232:leaf=-0.0401785746
							136:[f1302<-13356473] yes=233,no=234,missing=233
								233:leaf=0.0378706157
								234:leaf=0.00429763645
						72:leaf=0.153212845
				18:[f1582<-11193386] yes=37,no=38,missing=37
					37:leaf=-0.174009278
					38:[f1471<-13127095] yes=73,no=74,missing=73
						73:[f1361<-12996022] yes=137,no=138,missing=137
							137:[f1385<-13290936] yes=235,no=236,missing=235
								235:leaf=-0.0584292598
								236:leaf=0.00374705507
							138:[f1084<-13290936] yes=237,no=238,missing=237
								237:leaf=0.0267389007
								238:leaf=0.0930793881
						74:[f1388<-6798623] yes=139,no=140,missing=139
							139:[f388<-5059364] yes=239,no=240,missing=239
								239:leaf=0.119549133
								240:leaf=0.030839432
							140:leaf=0.0304432921
		4:[f1493<-13192632] yes=9,no=10,missing=9
			9:[f1582<-12766644] yes=19,no=20,missing=19
				19:[f1564<-13028790] yes=39,no=40,missing=39
					39:[f1456<-11816110] yes=75,no=76,missing=75
						75:[f324<-12635444] yes=141,no=142,missing=141
							141:leaf=-0.112474628
							142:leaf=0.0107742734
						76:[f1397<-13290936] yes=143,no=144,missing=143
							143:leaf=0.013330481
							144:leaf=0.117761813
					40:[f1564<-11586732] yes=77,no=78,missing=77
						77:[f1016<-13094327] yes=145,no=146,missing=145
							145:leaf=0.224213332
							146:leaf=0.0888728648
						78:[f1530<-13061558] yes=147,no=148,missing=147
							147:[f1487<-13454778] yes=241,no=242,missing=241
								241:[f1361<-13356473] yes=345,no=346,missing=345
									345:leaf=0.0255865585
									346:leaf=0.0888696015
								242:[f1450<-12668339] yes=347,no=348,missing=347
									347:leaf=-0.0303463824
									348:[f1191<-13192632] yes=445,no=446,missing=445
										445:leaf=0.0126565043
										446:leaf=0.00257784431
							148:[f539<-13389242] yes=243,no=244,missing=243
								243:leaf=0.172567233
								244:leaf=0.0351696089
				20:[f1576<-11980078] yes=41,no=42,missing=41
					41:[f1554<-13389242] yes=79,no=80,missing=79
						79:[f1576<-12570034] yes=149,no=150,missing=149
							149:[f96<-13225400] yes=245,no=246,missing=245
								245:leaf=0.253549874
								246:leaf=0.0718759075
							150:[f7<-13356473] yes=247,no=248,missing=247
								247:leaf=-0.0213048123
								248:leaf=0.0141749028
						80:[f1551<-13454778] yes=151,no=152,missing=151
							151:leaf=-0.0245365817
							152:[f1441<-12504498] yes=249,no=250,missing=249
								249:[f19<-13356473] yes=349,no=350,missing=349
									349:leaf=0.0413458161
									350:leaf=0.00999539532
								250:leaf=0.0866045654
					42:[f637<-13094327] yes=81,no=82,missing=81
						81:[f1133<-12570034] yes=153,no=154,missing=153
							153:[f1373<-11193386] yes=251,no=252,missing=251
								251:[f1068<-13192632] yes=351,no=352,missing=351
									351:leaf=0.305237174
									352:leaf=0.12417382
								252:leaf=0.0600453503
							154:[f1136<-12996022] yes=253,no=254,missing=253
								253:leaf=0.0207511429
								254:leaf=0.126340836
						82:[f31<-11914288] yes=155,no=156,missing=155
							155:leaf=0.0934660807
							156:leaf=0.0207735673
			10:[f96<-13159864] yes=21,no=22,missing=21
				21:[f1505<-13127095] yes=43,no=44,missing=43
					43:[f1496<-13192632] yes=83,no=84,missing=83
						83:[f1517<-12766644] yes=157,no=158,missing=157
							157:[f554<-13389242] yes=255,no=256,missing=255
								255:leaf=0.28715831
								256:leaf=0.0685844123
							158:[f130<-13061558] yes=257,no=258,missing=257
								257:leaf=-0.0468903817
								258:leaf=0.0797976553
						84:[f7<-13454778] yes=159,no=160,missing=159
							159:[f1108<-13290936] yes=259,no=260,missing=259
								259:[f1471<-13192632] yes=353,no=354,missing=353
									353:[f1437<-12668340] yes=447,no=448,missing=447
										447:leaf=0.0432793833
										448:leaf=-0.0204842463
									354:[f1508<-13192632] yes=449,no=450,missing=449
										449:leaf=0.116743669
										450:leaf=0.060949441
								260:leaf=-0.0467419513
							160:leaf=0.187314346
					44:[f1462<-13192632] yes=85,no=86,missing=85
						85:[f1505<-12864948] yes=161,no=162,missing=161
							161:[f804<-12996022] yes=261,no=262,missing=261
								261:leaf=-0.251393139
								262:leaf=0.0133921001
							162:[f1330<-13323704] yes=263,no=264,missing=263
								263:[f1582<-10898344] yes=355,no=356,missing=355
									355:[f1561<-9127585] yes=451,no=452,missing=451
										451:leaf=0.0250714086
										452:leaf=0.0673623756
									356:[f1441<-9094817] yes=453,no=454,missing=453
										453:leaf=-0.0415293351
										454:leaf=0.0254611205
								264:[f1484<-4565807] yes=357,no=358,missing=357
									357:leaf=0.113128774
									358:leaf=0.036919985
						86:[f1564<-11980206] yes=163,no=164,missing=163
							163:[f1505<-11291690] yes=265,no=266,missing=265
								265:[f1354<-12373426] yes=359,no=360,missing=359
									359:leaf=0.224982366
									360:leaf=0.113882564
								266:[f1047<-7225119] yes=361,no=362,missing=361
									361:leaf=0.0984457806
									362:leaf=0.0251397565
							164:[f699<-6503327.5] yes=267,no=268,missing=267
								267:[f1582<-5453217.5] yes=363,no=364,missing=363
									363:[f1262<-13061558] yes=455,no=456,missing=455
										455:leaf=0.090913631
										456:leaf=0.0501187854
									364:[f1034<-12143920] yes=457,no=458,missing=457
										457:leaf=0.0192388874
										458:leaf=0.07752119
								268:leaf=0.157260865
				22:[f721<-11553964] yes=45,no=46,missing=45
					45:[f970<-13389242] yes=87,no=88,missing=87
						87:leaf=0.131940305
						88:leaf=0.23846221
					46:[f1521<-164051] yes=89,no=90,missing=89
						89:[f917<-10832680] yes=165,no=166,missing=165
							165:leaf=0.125054821
							166:leaf=0.0501470231
						90:[f19<-11685036] yes=167,no=168,missing=167
							167:leaf=0.0173370261
							168:leaf=0.0554331616
	2:[f68<-13028790] yes=5,no=6,missing=5
		5:[f1431<-13192632] yes=11,no=12,missing=11
			11:[f1474<-12570034] yes=23,no=24,missing=23
				23:[f1536<-12602802] yes=47,no=48,missing=47
					47:[f1570<-13454778] yes=91,no=92,missing=91
						91:[f62<-13159863] yes=169,no=170,missing=169
							169:[f37<-10372780] yes=269,no=270,missing=269
								269:leaf=-0.0619864427
								270:leaf=-0.00299928198
							170:leaf=0.164757535
						92:[f1062<-13454778] yes=171,no=172,missing=171
							171:[f37<-12570035] yes=271,no=272,missing=271
								271:leaf=0.450371087
								272:leaf=0.156298071
							172:leaf=0.0600402839
					48:[f1508<-12996022] yes=93,no=94,missing=93
						93:[f1554<-12996022] yes=173,no=174,missing=173
							173:[f37<-11947310] yes=273,no=274,missing=273
								273:leaf=0.346213162
								274:leaf=0.0622052215
							174:[f1004<-12668340] yes=275,no=276,missing=275
								275:leaf=0.106630661
								276:leaf=0.0116906408
						94:[f1567<-11947310] yes=175,no=176,missing=175
							175:[f13<-13389242] yes=277,no=278,missing=277
								277:leaf=-0.0803494453
								278:[f7<-11914288] yes=365,no=366,missing=365
									365:leaf=0.00260342378
									366:leaf=0.0122230062
							176:[f1041<-10504870] yes=279,no=280,missing=279
								279:[f1361<-6732959.5] yes=367,no=368,missing=367
									367:[f1542<-11652268] yes=459,no=460,missing=459
										459:leaf=0.0113276262
										460:leaf=0.0982899442
									368:leaf=0.182155788
								280:[f1<-13225400] yes=369,no=370,missing=369
									369:[f44<-13061558] yes=461,no=462,missing=461
										461:leaf=-0.0229864605
										462:leaf=-0.00128762133
									370:[f1<-12733876] yes=463,no=464,missing=463
										463:leaf=0.00411049463
										464:leaf=0.024181731
				24:[f1050<-7389215] yes=49,no=50,missing=49
					49:[f1508<-12242352] yes=95,no=96,missing=95
						95:[f1511<-8799648] yes=177,no=178,missing=177
							177:[f1444<-13356474] yes=281,no=282,missing=281
								281:[f1277<-7290783] yes=371,no=372,missing=371
									371:leaf=0.147648379
									372:leaf=0.0196242817
								282:[f1579<-12733876] yes=373,no=374,missing=373
									373:[f1197<-13225400] yes=465,no=466,missing=465
										465:leaf=-0.0309179891
										466:leaf=0.0273681507
